FANN_FLO_2.1
num_layers=3
learning_rate=0.700000
connection_rate=1.000000
network_type=0
learning_momentum=0.000000
training_algorithm=2
train_error_function=1
train_stop_function=0
cascade_output_change_fraction=0.010000
quickprop_decay=-0.000100
quickprop_mu=1.750000
rprop_increase_factor=1.200000
rprop_decrease_factor=0.500000
rprop_delta_min=0.000000
rprop_delta_max=50.000000
rprop_delta_zero=0.100000
cascade_output_stagnation_epochs=12
cascade_candidate_change_fraction=0.010000
cascade_candidate_stagnation_epochs=12
cascade_max_out_epochs=150
cascade_max_cand_epochs=150
cascade_num_candidate_groups=2
bit_fail_limit=3.49999994039535522461e-01
cascade_candidate_limit=1.00000000000000000000e+03
cascade_weight_multiplier=4.00000005960464477539e-01
cascade_activation_functions_count=10
cascade_activation_functions=3 5 7 8 10 11 14 15 16 17 
cascade_activation_steepnesses_count=4
cascade_activation_steepnesses=2.50000000000000000000e-01 5.00000000000000000000e-01 7.50000000000000000000e-01 1.00000000000000000000e+00 
layer_sizes=2 101 2 
scale_included=0
neurons (num_inputs, activation_function, activation_steepness)=(0, 0, 0.00000000000000000000e+00) (0, 0, 0.00000000000000000000e+00) (2, 5, 5.00000000000000000000e-01) (2, 5, 5.00000000000000000000e-01) (2, 5, 5.00000000000000000000e-01) (2, 5, 5.00000000000000000000e-01) (2, 5, 5.00000000000000000000e-01) (2, 5, 5.00000000000000000000e-01) (2, 5, 5.00000000000000000000e-01) (2, 5, 5.00000000000000000000e-01) (2, 5, 5.00000000000000000000e-01) (2, 5, 5.00000000000000000000e-01) (2, 5, 5.00000000000000000000e-01) (2, 5, 5.00000000000000000000e-01) (2, 5, 5.00000000000000000000e-01) (2, 5, 5.00000000000000000000e-01) (2, 5, 5.00000000000000000000e-01) (2, 5, 5.00000000000000000000e-01) (2, 5, 5.00000000000000000000e-01) (2, 5, 5.00000000000000000000e-01) (2, 5, 5.00000000000000000000e-01) (2, 5, 5.00000000000000000000e-01) (2, 5, 5.00000000000000000000e-01) (2, 5, 5.00000000000000000000e-01) (2, 5, 5.00000000000000000000e-01) (2, 5, 5.00000000000000000000e-01) (2, 5, 5.00000000000000000000e-01) (2, 5, 5.00000000000000000000e-01) (2, 5, 5.00000000000000000000e-01) (2, 5, 5.00000000000000000000e-01) (2, 5, 5.00000000000000000000e-01) (2, 5, 5.00000000000000000000e-01) (2, 5, 5.00000000000000000000e-01) (2, 5, 5.00000000000000000000e-01) (2, 5, 5.00000000000000000000e-01) (2, 5, 5.00000000000000000000e-01) (2, 5, 5.00000000000000000000e-01) (2, 5, 5.00000000000000000000e-01) (2, 5, 5.00000000000000000000e-01) (2, 5, 5.00000000000000000000e-01) (2, 5, 5.00000000000000000000e-01) (2, 5, 5.00000000000000000000e-01) (2, 5, 5.00000000000000000000e-01) (2, 5, 5.00000000000000000000e-01) (2, 5, 5.00000000000000000000e-01) (2, 5, 5.00000000000000000000e-01) (2, 5, 5.00000000000000000000e-01) (2, 5, 5.00000000000000000000e-01) (2, 5, 5.00000000000000000000e-01) (2, 5, 5.00000000000000000000e-01) (2, 5, 5.00000000000000000000e-01) (2, 5, 5.00000000000000000000e-01) (2, 5, 5.00000000000000000000e-01) (2, 5, 5.00000000000000000000e-01) (2, 5, 5.00000000000000000000e-01) (2, 5, 5.00000000000000000000e-01) (2, 5, 5.00000000000000000000e-01) (2, 5, 5.00000000000000000000e-01) (2, 5, 5.00000000000000000000e-01) (2, 5, 5.00000000000000000000e-01) (2, 5, 5.00000000000000000000e-01) (2, 5, 5.00000000000000000000e-01) (2, 5, 5.00000000000000000000e-01) (2, 5, 5.00000000000000000000e-01) (2, 5, 5.00000000000000000000e-01) (2, 5, 5.00000000000000000000e-01) (2, 5, 5.00000000000000000000e-01) (2, 5, 5.00000000000000000000e-01) (2, 5, 5.00000000000000000000e-01) (2, 5, 5.00000000000000000000e-01) (2, 5, 5.00000000000000000000e-01) (2, 5, 5.00000000000000000000e-01) (2, 5, 5.00000000000000000000e-01) (2, 5, 5.00000000000000000000e-01) (2, 5, 5.00000000000000000000e-01) (2, 5, 5.00000000000000000000e-01) (2, 5, 5.00000000000000000000e-01) (2, 5, 5.00000000000000000000e-01) (2, 5, 5.00000000000000000000e-01) (2, 5, 5.00000000000000000000e-01) (2, 5, 5.00000000000000000000e-01) (2, 5, 5.00000000000000000000e-01) (2, 5, 5.00000000000000000000e-01) (2, 5, 5.00000000000000000000e-01) (2, 5, 5.00000000000000000000e-01) (2, 5, 5.00000000000000000000e-01) (2, 5, 5.00000000000000000000e-01) (2, 5, 5.00000000000000000000e-01) (2, 5, 5.00000000000000000000e-01) (2, 5, 5.00000000000000000000e-01) (2, 5, 5.00000000000000000000e-01) (2, 5, 5.00000000000000000000e-01) (2, 5, 5.00000000000000000000e-01) (2, 5, 5.00000000000000000000e-01) (2, 5, 5.00000000000000000000e-01) (2, 5, 5.00000000000000000000e-01) (2, 5, 5.00000000000000000000e-01) (2, 5, 5.00000000000000000000e-01) (2, 5, 5.00000000000000000000e-01) (2, 5, 5.00000000000000000000e-01) (2, 5, 5.00000000000000000000e-01) (2, 5, 5.00000000000000000000e-01) (0, 5, 0.00000000000000000000e+00) (101, 5, 5.00000000000000000000e-01) (0, 5, 0.00000000000000000000e+00) 
connections (connected_to_neuron, weight)=(0, -1.40539258718490600586e-01) (1, -1.77935564517974853516e+00) (0, 2.21142125129699707031e+00) (1, 3.78100299835205078125e+00) (0, 2.95970940589904785156e+00) (1, 7.10923051834106445312e+00) (0, -3.65519821643829345703e-01) (1, -2.27104282379150390625e+00) (0, 2.62200164794921875000e+00) (1, -1.64472863078117370605e-01) (0, 9.04349144548177719116e-03) (1, -1.96824133396148681641e+00) (0, 2.19356441497802734375e+00) (1, 3.98806309700012207031e+00) (0, 3.66184711456298828125e+00) (1, 1.97018730640411376953e+00) (0, 3.66203784942626953125e+00) (1, 2.02046012878417968750e+00) (0, 2.25706386566162109375e+00) (1, 3.01060247421264648438e+00) (0, -1.54215335845947265625e-01) (1, -1.53692746162414550781e+00) (0, 7.89215136319398880005e-03) (1, -2.46127176284790039062e+00) (0, 2.59514379501342773438e+00) (1, -1.33773103356361389160e-01) (0, 2.73954272270202636719e+00) (1, -7.93267202377319335938e+00) (0, -1.37799188494682312012e-01) (1, -1.83059716224670410156e+00) (0, -1.47354349493980407715e-01) (1, -1.66244077682495117188e+00) (0, -1.09269559383392333984e-01) (1, -2.38781285285949707031e+00) (0, 2.51844429969787597656e+00) (1, 1.22196018695831298828e-01) (0, 2.20581579208374023438e+00) (1, 3.86177659034729003906e+00) (0, -1.54853865504264831543e-01) (1, -1.52132129669189453125e+00) (0, 2.76322817802429199219e+00) (1, -7.97154903411865234375e+00) (0, 2.21385407447814941406e+00) (1, 3.75341367721557617188e+00) (0, 2.73054337501525878906e+00) (1, -7.90390110015869140625e+00) (0, 2.62369990348815917969e+00) (1, -9.89404171705245971680e-02) (0, 2.19103407859802246094e+00) (1, 4.00670337677001953125e+00) (0, 2.76337170600891113281e+00) (1, -7.97227001190185546875e+00) (0, -1.35464027523994445801e-01) (1, -1.87410771846771240234e+00) (0, -1.48718357086181640625e-01) (1, -1.63886189460754394531e+00) (0, 1.94437527656555175781e+00) (1, 3.32063579559326171875e+00) (0, 2.77167272567749023438e+00) (1, -8.02610492706298828125e+00) (0, 8.89610219746828079224e-03) (1, -2.02424216270446777344e+00) (0, 2.72266316413879394531e+00) (1, -7.78142070770263671875e+00) (0, 2.57555389404296875000e+00) (1, -1.20770387351512908936e-01) (0, -1.56919062137603759766e-01) (1, -1.48526215553283691406e+00) (0, -1.56712636351585388184e-01) (1, -1.48896741867065429688e+00) (0, -1.39485299587249755859e-01) (1, -1.79813337326049804688e+00) (0, -1.33342787623405456543e-01) (1, -1.91067850589752197266e+00) (0, 3.67132878303527832031e+00) (1, 1.90336811542510986328e+00) (0, 9.02789551764726638794e-03) (1, -2.00147414207458496094e+00) (0, -1.37766659259796142578e-01) (1, -1.82950747013092041016e+00) (0, 3.08458614349365234375e+00) (1, 2.22037720680236816406e+00) (0, 1.88842308521270751953e+00) (1, -1.83754272460937500000e+01) (0, -3.59196633100509643555e-01) (1, -2.30169415473937988281e+00) (0, -1.56034842133522033691e-01) (1, -1.50055503845214843750e+00) (0, -1.53708815574645996094e-01) (1, -1.54480957984924316406e+00) (0, -3.61280947923660278320e-01) (1, -1.75372636318206787109e+00) (0, -1.39084294438362121582e-01) (1, -1.80494725704193115234e+00) (0, -1.40317931771278381348e-01) (1, -1.78130841255187988281e+00) (0, 8.75574443489313125610e-03) (1, -2.11392402648925781250e+00) (0, -8.25790986418724060059e-02) (1, -2.86895728111267089844e+00) (0, 2.61485791206359863281e+00) (1, -1.10677555203437805176e-01) (0, 3.66258120536804199219e+00) (1, 1.92528831958770751953e+00) (0, -1.01247407495975494385e-01) (1, -2.52692890167236328125e+00) (0, -8.03264901041984558105e-02) (1, 5.85619163513183593750e+00) (0, -1.49331152439117431641e-01) (1, -1.62706553936004638672e+00) (0, 2.72664189338684082031e+00) (1, -7.89031505584716796875e+00) (0, -3.51158887147903442383e-01) (1, -1.74976992607116699219e+00) (0, 3.65988516807556152344e+00) (1, 2.02663755416870117188e+00) (0, -1.61315393447875976562e+00) (1, 1.03898773193359375000e+01) (0, -1.35529592633247375488e-01) (1, -1.87307918071746826172e+00) (0, 8.49652383476495742798e-03) (1, -2.16477966308593750000e+00) (0, 2.19379258155822753906e+00) (1, 3.98218846321105957031e+00) (0, 1.84932196140289306641e+00) (1, 4.33589220046997070312e+00) (0, 1.35367536544799804688e+00) (1, 7.59268379211425781250e+00) (0, 2.22943353652954101562e+00) (1, 3.51304435729980468750e+00) (0, -8.67635831236839294434e-02) (1, -2.79580497741699218750e+00) (0, 3.82306799292564392090e-02) (1, -1.86145281791687011719e+00) (0, -1.69669759273529052734e+00) (1, 1.08895473480224609375e+01) (0, -3.51671576499938964844e-01) (1, -1.69333291053771972656e+00) (0, -3.52013856172561645508e-01) (1, -1.69304263591766357422e+00) (0, -1.37829318642616271973e-01) (1, -1.82998597621917724609e+00) (0, 2.75977277755737304688e+00) (1, -7.95935344696044921875e+00) (0, 2.20308613777160644531e+00) (1, 3.89199066162109375000e+00) (0, 2.13880085945129394531e+00) (1, 1.67159587144851684570e-01) (0, 2.19112730026245117188e+00) (1, 4.02038288116455078125e+00) (0, 2.21464705467224121094e+00) (1, 3.74890708923339843750e+00) (0, 2.26091790199279785156e+00) (1, 2.98318123817443847656e+00) (0, -1.38333961367607116699e-01) (1, -1.82100367546081542969e+00) (0, -1.33526787161827087402e-01) (1, -1.90828740596771240234e+00) (0, -2.50089740753173828125e+00) (1, 1.56261043548583984375e+01) (0, -3.52142512798309326172e-01) (1, -1.76325035095214843750e+00) (0, 2.20015788078308105469e+00) (1, 3.92057299613952636719e+00) (0, 2.19683337211608886719e+00) (1, 3.95494389533996582031e+00) (0, 2.18236088752746582031e+00) (1, 4.09782600402832031250e+00) (0, -1.55517488718032836914e-01) (1, -1.51006329059600830078e+00) (0, -8.58610048890113830566e-02) (1, -2.81149911880493164062e+00) (0, 2.73248887062072753906e+00) (1, -7.91053915023803710938e+00) (0, 2.47252798080444335938e+00) (1, -2.03943943977355957031e+00) (0, 7.17622600495815277100e-03) (1, -3.13239765167236328125e+00) (0, -1.09716631472110748291e-01) (1, -2.37628746032714843750e+00) (0, 2.54096674919128417969e+00) (1, -5.74042648077011108398e-02) (0, -1.72367143630981445312e+00) (1, 1.10639762878417968750e+01) (0, 2.71398329734802246094e+00) (1, -7.75190353393554687500e+00) (0, -3.49047780036926269531e-01) (1, -1.75941610336303710938e+00) (0, -1.73904597759246826172e+00) (1, 1.11212720870971679688e+01) (0, 1.85210299491882324219e+00) (1, 4.32959556579589843750e+00) (0, 2.95664906501770019531e+00) (1, 7.12634706497192382812e+00) (0, 2.53447484970092773438e+00) (1, -3.02780227661132812500e+01) (0, -8.66526514291763305664e-02) (1, -2.79810953140258789062e+00) (0, 2.74310040473937988281e+00) (1, -7.93730258941650390625e+00) (2, 1.10125494003295898438e+00) (3, 2.03403019905090332031e+00) (4, 2.05166459083557128906e+00) (5, 1.68435513973236083984e+00) (6, 3.94377633929252624512e-02) (7, 2.10803771018981933594e+00) (8, 2.10314655303955078125e+00) (9, 1.99800395965576171875e+00) (10, 1.97494089603424072266e+00) (11, 2.04406857490539550781e+00) (12, 1.07170796394348144531e+00) (13, 1.93990886211395263672e+00) (14, 5.36472536623477935791e-02) (15, -1.39217451214790344238e-02) (16, 1.55478262901306152344e+00) (17, 1.12475764751434326172e+00) (18, 1.07433784008026123047e+00) (19, 7.47438818216323852539e-02) (20, 2.02421021461486816406e+00) (21, 1.07167720794677734375e+00) (22, -2.36149574629962444305e-03) (23, 2.02944040298461914062e+00) (24, -4.99513447284698486328e-02) (25, 4.82251383364200592041e-02) (26, 2.07062101364135742188e+00) (27, -6.44770488142967224121e-02) (28, 1.06610095500946044922e+00) (29, 1.54223275184631347656e+00) (30, 2.07605481147766113281e+00) (31, -6.58357574138790369034e-04) (32, 2.04903435707092285156e+00) (33, -8.92066489905118942261e-03) (34, 6.27148076891899108887e-02) (35, 1.64035415649414062500e+00) (36, 1.62145233154296875000e+00) (37, 1.08760714530944824219e+00) (38, 1.09667026996612548828e+00) (39, 1.94852042198181152344e+00) (40, 2.11518597602844238281e+00) (41, 1.59063196182250976562e+00) (42, 2.04850745201110839844e+00) (43, -2.34091234207153320312e+00) (44, 1.73059964179992675781e+00) (45, 1.63753890991210937500e+00) (46, 1.28361737728118896484e+00) (47, 1.69828844070434570312e+00) (48, 1.09029066562652587891e+00) (49, 1.56877517700195312500e+00) (50, 2.05533719062805175781e+00) (51, 1.52947247028350830078e+00) (52, 5.42395189404487609863e-02) (53, 1.97842085361480712891e+00) (54, 1.04546880722045898438e+00) (55, 1.49380207061767578125e+00) (56, 1.57081997394561767578e+00) (57, -4.00958471000194549561e-02) (58, 1.70934486389160156250e+00) (59, 1.97881007194519042969e+00) (60, -1.00164330005645751953e+00) (61, 1.10740482807159423828e+00) (62, 2.00684046745300292969e+00) (63, 2.05583500862121582031e+00) (64, 2.03755736351013183594e+00) (65, 2.01056170463562011719e+00) (66, 2.01642966270446777344e+00) (67, 1.56584525108337402344e+00) (68, 7.38016486167907714844e-01) (69, -3.90416026115417480469e-01) (70, 1.78178691864013671875e+00) (71, 1.71744728088378906250e+00) (72, 1.53975248336791992188e+00) (73, -8.85873939841985702515e-03) (74, 2.06835865974426269531e+00) (75, 8.06248903274536132812e-01) (76, 2.04454779624938964844e+00) (77, 2.03518629074096679688e+00) (78, 1.99191522598266601562e+00) (79, 1.57496929168701171875e+00) (80, 1.10451900959014892578e+00) (81, -1.00872600078582763672e+00) (82, 1.68359553813934326172e+00) (83, 2.08585667610168457031e+00) (84, 2.03547620773315429688e+00) (85, 2.06783747673034667969e+00) (86, 1.09984087944030761719e+00) (87, 1.54604423046112060547e+00) (88, -1.30047625862061977386e-03) (89, 1.62114754319190979004e-01) (90, 1.85642838478088378906e+00) (91, 1.05982172489166259766e+00) (92, 6.94084838032722473145e-02) (93, -4.87829715013504028320e-01) (94, -3.05664259940385818481e-02) (95, 1.69200038909912109375e+00) (96, -4.08284723758697509766e-01) (97, 2.01631641387939453125e+00) (98, 2.08645081520080566406e+00) (99, 2.63327789306640625000e+00) (100, 1.55041134357452392578e+00) (101, -3.45451687462627887726e-03) (102, 1.61700475215911865234e+00) 
