FANN_FLO_2.1
num_layers=3
learning_rate=0.700000
connection_rate=1.000000
network_type=0
learning_momentum=0.000000
training_algorithm=2
train_error_function=1
train_stop_function=0
cascade_output_change_fraction=0.010000
quickprop_decay=-0.000100
quickprop_mu=1.750000
rprop_increase_factor=1.200000
rprop_decrease_factor=0.500000
rprop_delta_min=0.000000
rprop_delta_max=50.000000
rprop_delta_zero=0.100000
cascade_output_stagnation_epochs=12
cascade_candidate_change_fraction=0.010000
cascade_candidate_stagnation_epochs=12
cascade_max_out_epochs=150
cascade_max_cand_epochs=150
cascade_num_candidate_groups=2
bit_fail_limit=3.49999994039535522461e-01
cascade_candidate_limit=1.00000000000000000000e+03
cascade_weight_multiplier=4.00000005960464477539e-01
cascade_activation_functions_count=10
cascade_activation_functions=3 5 7 8 10 11 14 15 16 17 
cascade_activation_steepnesses_count=4
cascade_activation_steepnesses=2.50000000000000000000e-01 5.00000000000000000000e-01 7.50000000000000000000e-01 1.00000000000000000000e+00 
layer_sizes=2 1001 2 
scale_included=0
neurons (num_inputs, activation_function, activation_steepness)=(0, 0, 0.00000000000000000000e+00) (0, 0, 0.00000000000000000000e+00) (2, 5, 5.00000000000000000000e-01) (2, 5, 5.00000000000000000000e-01) (2, 5, 5.00000000000000000000e-01) (2, 5, 5.00000000000000000000e-01) (2, 5, 5.00000000000000000000e-01) (2, 5, 5.00000000000000000000e-01) (2, 5, 5.00000000000000000000e-01) (2, 5, 5.00000000000000000000e-01) (2, 5, 5.00000000000000000000e-01) (2, 5, 5.00000000000000000000e-01) (2, 5, 5.00000000000000000000e-01) (2, 5, 5.00000000000000000000e-01) (2, 5, 5.00000000000000000000e-01) (2, 5, 5.00000000000000000000e-01) (2, 5, 5.00000000000000000000e-01) (2, 5, 5.00000000000000000000e-01) (2, 5, 5.00000000000000000000e-01) (2, 5, 5.00000000000000000000e-01) (2, 5, 5.00000000000000000000e-01) (2, 5, 5.00000000000000000000e-01) (2, 5, 5.00000000000000000000e-01) (2, 5, 5.00000000000000000000e-01) (2, 5, 5.00000000000000000000e-01) (2, 5, 5.00000000000000000000e-01) (2, 5, 5.00000000000000000000e-01) (2, 5, 5.00000000000000000000e-01) (2, 5, 5.00000000000000000000e-01) (2, 5, 5.00000000000000000000e-01) (2, 5, 5.00000000000000000000e-01) (2, 5, 5.00000000000000000000e-01) (2, 5, 5.00000000000000000000e-01) (2, 5, 5.00000000000000000000e-01) (2, 5, 5.00000000000000000000e-01) (2, 5, 5.00000000000000000000e-01) (2, 5, 5.00000000000000000000e-01) (2, 5, 5.00000000000000000000e-01) (2, 5, 5.00000000000000000000e-01) (2, 5, 5.00000000000000000000e-01) (2, 5, 5.00000000000000000000e-01) (2, 5, 5.00000000000000000000e-01) (2, 5, 5.00000000000000000000e-01) (2, 5, 5.00000000000000000000e-01) (2, 5, 5.00000000000000000000e-01) (2, 5, 5.00000000000000000000e-01) (2, 5, 5.00000000000000000000e-01) (2, 5, 5.00000000000000000000e-01) (2, 5, 5.00000000000000000000e-01) (2, 5, 5.00000000000000000000e-01) (2, 5, 5.00000000000000000000e-01) (2, 5, 5.00000000000000000000e-01) (2, 5, 5.00000000000000000000e-01) (2, 5, 5.00000000000000000000e-01) (2, 5, 5.00000000000000000000e-01) (2, 5, 5.00000000000000000000e-01) (2, 5, 5.00000000000000000000e-01) (2, 5, 5.00000000000000000000e-01) (2, 5, 5.00000000000000000000e-01) (2, 5, 5.00000000000000000000e-01) (2, 5, 5.00000000000000000000e-01) (2, 5, 5.00000000000000000000e-01) (2, 5, 5.00000000000000000000e-01) (2, 5, 5.00000000000000000000e-01) (2, 5, 5.00000000000000000000e-01) (2, 5, 5.00000000000000000000e-01) (2, 5, 5.00000000000000000000e-01) (2, 5, 5.00000000000000000000e-01) (2, 5, 5.00000000000000000000e-01) (2, 5, 5.00000000000000000000e-01) (2, 5, 5.00000000000000000000e-01) (2, 5, 5.00000000000000000000e-01) (2, 5, 5.00000000000000000000e-01) (2, 5, 5.00000000000000000000e-01) (2, 5, 5.00000000000000000000e-01) (2, 5, 5.00000000000000000000e-01) (2, 5, 5.00000000000000000000e-01) (2, 5, 5.00000000000000000000e-01) (2, 5, 5.00000000000000000000e-01) (2, 5, 5.00000000000000000000e-01) (2, 5, 5.00000000000000000000e-01) (2, 5, 5.00000000000000000000e-01) (2, 5, 5.00000000000000000000e-01) (2, 5, 5.00000000000000000000e-01) (2, 5, 5.00000000000000000000e-01) (2, 5, 5.00000000000000000000e-01) (2, 5, 5.00000000000000000000e-01) (2, 5, 5.00000000000000000000e-01) (2, 5, 5.00000000000000000000e-01) (2, 5, 5.00000000000000000000e-01) (2, 5, 5.00000000000000000000e-01) (2, 5, 5.00000000000000000000e-01) (2, 5, 5.00000000000000000000e-01) (2, 5, 5.00000000000000000000e-01) (2, 5, 5.00000000000000000000e-01) (2, 5, 5.00000000000000000000e-01) (2, 5, 5.00000000000000000000e-01) (2, 5, 5.00000000000000000000e-01) (2, 5, 5.00000000000000000000e-01) (2, 5, 5.00000000000000000000e-01) (2, 5, 5.00000000000000000000e-01) (2, 5, 5.00000000000000000000e-01) (2, 5, 5.00000000000000000000e-01) (2, 5, 5.00000000000000000000e-01) (2, 5, 5.00000000000000000000e-01) (2, 5, 5.00000000000000000000e-01) (2, 5, 5.00000000000000000000e-01) (2, 5, 5.00000000000000000000e-01) (2, 5, 5.00000000000000000000e-01) (2, 5, 5.00000000000000000000e-01) (2, 5, 5.00000000000000000000e-01) (2, 5, 5.00000000000000000000e-01) (2, 5, 5.00000000000000000000e-01) (2, 5, 5.00000000000000000000e-01) (2, 5, 5.00000000000000000000e-01) (2, 5, 5.00000000000000000000e-01) (2, 5, 5.00000000000000000000e-01) (2, 5, 5.00000000000000000000e-01) (2, 5, 5.00000000000000000000e-01) (2, 5, 5.00000000000000000000e-01) (2, 5, 5.00000000000000000000e-01) (2, 5, 5.00000000000000000000e-01) (2, 5, 5.00000000000000000000e-01) (2, 5, 5.00000000000000000000e-01) (2, 5, 5.00000000000000000000e-01) (2, 5, 5.00000000000000000000e-01) (2, 5, 5.00000000000000000000e-01) (2, 5, 5.00000000000000000000e-01) (2, 5, 5.00000000000000000000e-01) (2, 5, 5.00000000000000000000e-01) (2, 5, 5.00000000000000000000e-01) (2, 5, 5.00000000000000000000e-01) (2, 5, 5.00000000000000000000e-01) (2, 5, 5.00000000000000000000e-01) (2, 5, 5.00000000000000000000e-01) (2, 5, 5.00000000000000000000e-01) (2, 5, 5.00000000000000000000e-01) (2, 5, 5.00000000000000000000e-01) (2, 5, 5.00000000000000000000e-01) (2, 5, 5.00000000000000000000e-01) (2, 5, 5.00000000000000000000e-01) (2, 5, 5.00000000000000000000e-01) (2, 5, 5.00000000000000000000e-01) (2, 5, 5.00000000000000000000e-01) (2, 5, 5.00000000000000000000e-01) (2, 5, 5.00000000000000000000e-01) (2, 5, 5.00000000000000000000e-01) (2, 5, 5.00000000000000000000e-01) (2, 5, 5.00000000000000000000e-01) (2, 5, 5.00000000000000000000e-01) (2, 5, 5.00000000000000000000e-01) (2, 5, 5.00000000000000000000e-01) (2, 5, 5.00000000000000000000e-01) (2, 5, 5.00000000000000000000e-01) (2, 5, 5.00000000000000000000e-01) (2, 5, 5.00000000000000000000e-01) (2, 5, 5.00000000000000000000e-01) (2, 5, 5.00000000000000000000e-01) (2, 5, 5.00000000000000000000e-01) (2, 5, 5.00000000000000000000e-01) (2, 5, 5.00000000000000000000e-01) (2, 5, 5.00000000000000000000e-01) (2, 5, 5.00000000000000000000e-01) (2, 5, 5.00000000000000000000e-01) (2, 5, 5.00000000000000000000e-01) (2, 5, 5.00000000000000000000e-01) (2, 5, 5.00000000000000000000e-01) (2, 5, 5.00000000000000000000e-01) (2, 5, 5.00000000000000000000e-01) (2, 5, 5.00000000000000000000e-01) (2, 5, 5.00000000000000000000e-01) (2, 5, 5.00000000000000000000e-01) (2, 5, 5.00000000000000000000e-01) (2, 5, 5.00000000000000000000e-01) (2, 5, 5.00000000000000000000e-01) (2, 5, 5.00000000000000000000e-01) (2, 5, 5.00000000000000000000e-01) (2, 5, 5.00000000000000000000e-01) (2, 5, 5.00000000000000000000e-01) (2, 5, 5.00000000000000000000e-01) (2, 5, 5.00000000000000000000e-01) (2, 5, 5.00000000000000000000e-01) (2, 5, 5.00000000000000000000e-01) (2, 5, 5.00000000000000000000e-01) (2, 5, 5.00000000000000000000e-01) (2, 5, 5.00000000000000000000e-01) (2, 5, 5.00000000000000000000e-01) (2, 5, 5.00000000000000000000e-01) (2, 5, 5.00000000000000000000e-01) (2, 5, 5.00000000000000000000e-01) (2, 5, 5.00000000000000000000e-01) (2, 5, 5.00000000000000000000e-01) (2, 5, 5.00000000000000000000e-01) (2, 5, 5.00000000000000000000e-01) (2, 5, 5.00000000000000000000e-01) (2, 5, 5.00000000000000000000e-01) (2, 5, 5.00000000000000000000e-01) (2, 5, 5.00000000000000000000e-01) (2, 5, 5.00000000000000000000e-01) (2, 5, 5.00000000000000000000e-01) (2, 5, 5.00000000000000000000e-01) (2, 5, 5.00000000000000000000e-01) (2, 5, 5.00000000000000000000e-01) (2, 5, 5.00000000000000000000e-01) (2, 5, 5.00000000000000000000e-01) (2, 5, 5.00000000000000000000e-01) (2, 5, 5.00000000000000000000e-01) (2, 5, 5.00000000000000000000e-01) (2, 5, 5.00000000000000000000e-01) (2, 5, 5.00000000000000000000e-01) (2, 5, 5.00000000000000000000e-01) (2, 5, 5.00000000000000000000e-01) (2, 5, 5.00000000000000000000e-01) (2, 5, 5.00000000000000000000e-01) (2, 5, 5.00000000000000000000e-01) (2, 5, 5.00000000000000000000e-01) (2, 5, 5.00000000000000000000e-01) (2, 5, 5.00000000000000000000e-01) (2, 5, 5.00000000000000000000e-01) (2, 5, 5.00000000000000000000e-01) (2, 5, 5.00000000000000000000e-01) (2, 5, 5.00000000000000000000e-01) (2, 5, 5.00000000000000000000e-01) (2, 5, 5.00000000000000000000e-01) (2, 5, 5.00000000000000000000e-01) (2, 5, 5.00000000000000000000e-01) (2, 5, 5.00000000000000000000e-01) (2, 5, 5.00000000000000000000e-01) (2, 5, 5.00000000000000000000e-01) (2, 5, 5.00000000000000000000e-01) (2, 5, 5.00000000000000000000e-01) (2, 5, 5.00000000000000000000e-01) (2, 5, 5.00000000000000000000e-01) (2, 5, 5.00000000000000000000e-01) (2, 5, 5.00000000000000000000e-01) (2, 5, 5.00000000000000000000e-01) (2, 5, 5.00000000000000000000e-01) (2, 5, 5.00000000000000000000e-01) (2, 5, 5.00000000000000000000e-01) (2, 5, 5.00000000000000000000e-01) (2, 5, 5.00000000000000000000e-01) (2, 5, 5.00000000000000000000e-01) (2, 5, 5.00000000000000000000e-01) (2, 5, 5.00000000000000000000e-01) (2, 5, 5.00000000000000000000e-01) (2, 5, 5.00000000000000000000e-01) (2, 5, 5.00000000000000000000e-01) (2, 5, 5.00000000000000000000e-01) (2, 5, 5.00000000000000000000e-01) (2, 5, 5.00000000000000000000e-01) (2, 5, 5.00000000000000000000e-01) (2, 5, 5.00000000000000000000e-01) (2, 5, 5.00000000000000000000e-01) (2, 5, 5.00000000000000000000e-01) (2, 5, 5.00000000000000000000e-01) (2, 5, 5.00000000000000000000e-01) (2, 5, 5.00000000000000000000e-01) (2, 5, 5.00000000000000000000e-01) (2, 5, 5.00000000000000000000e-01) (2, 5, 5.00000000000000000000e-01) (2, 5, 5.00000000000000000000e-01) (2, 5, 5.00000000000000000000e-01) (2, 5, 5.00000000000000000000e-01) (2, 5, 5.00000000000000000000e-01) (2, 5, 5.00000000000000000000e-01) (2, 5, 5.00000000000000000000e-01) (2, 5, 5.00000000000000000000e-01) (2, 5, 5.00000000000000000000e-01) (2, 5, 5.00000000000000000000e-01) (2, 5, 5.00000000000000000000e-01) (2, 5, 5.00000000000000000000e-01) (2, 5, 5.00000000000000000000e-01) (2, 5, 5.00000000000000000000e-01) (2, 5, 5.00000000000000000000e-01) (2, 5, 5.00000000000000000000e-01) (2, 5, 5.00000000000000000000e-01) (2, 5, 5.00000000000000000000e-01) (2, 5, 5.00000000000000000000e-01) (2, 5, 5.00000000000000000000e-01) (2, 5, 5.00000000000000000000e-01) (2, 5, 5.00000000000000000000e-01) (2, 5, 5.00000000000000000000e-01) (2, 5, 5.00000000000000000000e-01) (2, 5, 5.00000000000000000000e-01) (2, 5, 5.00000000000000000000e-01) (2, 5, 5.00000000000000000000e-01) (2, 5, 5.00000000000000000000e-01) (2, 5, 5.00000000000000000000e-01) (2, 5, 5.00000000000000000000e-01) (2, 5, 5.00000000000000000000e-01) (2, 5, 5.00000000000000000000e-01) (2, 5, 5.00000000000000000000e-01) (2, 5, 5.00000000000000000000e-01) (2, 5, 5.00000000000000000000e-01) (2, 5, 5.00000000000000000000e-01) (2, 5, 5.00000000000000000000e-01) (2, 5, 5.00000000000000000000e-01) (2, 5, 5.00000000000000000000e-01) (2, 5, 5.00000000000000000000e-01) (2, 5, 5.00000000000000000000e-01) (2, 5, 5.00000000000000000000e-01) (2, 5, 5.00000000000000000000e-01) (2, 5, 5.00000000000000000000e-01) (2, 5, 5.00000000000000000000e-01) (2, 5, 5.00000000000000000000e-01) (2, 5, 5.00000000000000000000e-01) (2, 5, 5.00000000000000000000e-01) (2, 5, 5.00000000000000000000e-01) (2, 5, 5.00000000000000000000e-01) (2, 5, 5.00000000000000000000e-01) (2, 5, 5.00000000000000000000e-01) (2, 5, 5.00000000000000000000e-01) (2, 5, 5.00000000000000000000e-01) (2, 5, 5.00000000000000000000e-01) (2, 5, 5.00000000000000000000e-01) (2, 5, 5.00000000000000000000e-01) (2, 5, 5.00000000000000000000e-01) (2, 5, 5.00000000000000000000e-01) (2, 5, 5.00000000000000000000e-01) (2, 5, 5.00000000000000000000e-01) (2, 5, 5.00000000000000000000e-01) (2, 5, 5.00000000000000000000e-01) (2, 5, 5.00000000000000000000e-01) (2, 5, 5.00000000000000000000e-01) (2, 5, 5.00000000000000000000e-01) (2, 5, 5.00000000000000000000e-01) (2, 5, 5.00000000000000000000e-01) (2, 5, 5.00000000000000000000e-01) (2, 5, 5.00000000000000000000e-01) (2, 5, 5.00000000000000000000e-01) (2, 5, 5.00000000000000000000e-01) (2, 5, 5.00000000000000000000e-01) (2, 5, 5.00000000000000000000e-01) (2, 5, 5.00000000000000000000e-01) (2, 5, 5.00000000000000000000e-01) (2, 5, 5.00000000000000000000e-01) (2, 5, 5.00000000000000000000e-01) (2, 5, 5.00000000000000000000e-01) (2, 5, 5.00000000000000000000e-01) (2, 5, 5.00000000000000000000e-01) (2, 5, 5.00000000000000000000e-01) (2, 5, 5.00000000000000000000e-01) (2, 5, 5.00000000000000000000e-01) (2, 5, 5.00000000000000000000e-01) (2, 5, 5.00000000000000000000e-01) (2, 5, 5.00000000000000000000e-01) (2, 5, 5.00000000000000000000e-01) (2, 5, 5.00000000000000000000e-01) (2, 5, 5.00000000000000000000e-01) (2, 5, 5.00000000000000000000e-01) (2, 5, 5.00000000000000000000e-01) (2, 5, 5.00000000000000000000e-01) (2, 5, 5.00000000000000000000e-01) (2, 5, 5.00000000000000000000e-01) (2, 5, 5.00000000000000000000e-01) (2, 5, 5.00000000000000000000e-01) (2, 5, 5.00000000000000000000e-01) (2, 5, 5.00000000000000000000e-01) (2, 5, 5.00000000000000000000e-01) (2, 5, 5.00000000000000000000e-01) (2, 5, 5.00000000000000000000e-01) (2, 5, 5.00000000000000000000e-01) (2, 5, 5.00000000000000000000e-01) (2, 5, 5.00000000000000000000e-01) (2, 5, 5.00000000000000000000e-01) (2, 5, 5.00000000000000000000e-01) (2, 5, 5.00000000000000000000e-01) (2, 5, 5.00000000000000000000e-01) (2, 5, 5.00000000000000000000e-01) (2, 5, 5.00000000000000000000e-01) (2, 5, 5.00000000000000000000e-01) (2, 5, 5.00000000000000000000e-01) (2, 5, 5.00000000000000000000e-01) (2, 5, 5.00000000000000000000e-01) (2, 5, 5.00000000000000000000e-01) (2, 5, 5.00000000000000000000e-01) (2, 5, 5.00000000000000000000e-01) (2, 5, 5.00000000000000000000e-01) (2, 5, 5.00000000000000000000e-01) (2, 5, 5.00000000000000000000e-01) (2, 5, 5.00000000000000000000e-01) (2, 5, 5.00000000000000000000e-01) (2, 5, 5.00000000000000000000e-01) (2, 5, 5.00000000000000000000e-01) (2, 5, 5.00000000000000000000e-01) (2, 5, 5.00000000000000000000e-01) (2, 5, 5.00000000000000000000e-01) (2, 5, 5.00000000000000000000e-01) (2, 5, 5.00000000000000000000e-01) (2, 5, 5.00000000000000000000e-01) (2, 5, 5.00000000000000000000e-01) (2, 5, 5.00000000000000000000e-01) (2, 5, 5.00000000000000000000e-01) (2, 5, 5.00000000000000000000e-01) (2, 5, 5.00000000000000000000e-01) (2, 5, 5.00000000000000000000e-01) (2, 5, 5.00000000000000000000e-01) (2, 5, 5.00000000000000000000e-01) (2, 5, 5.00000000000000000000e-01) (2, 5, 5.00000000000000000000e-01) (2, 5, 5.00000000000000000000e-01) (2, 5, 5.00000000000000000000e-01) (2, 5, 5.00000000000000000000e-01) (2, 5, 5.00000000000000000000e-01) (2, 5, 5.00000000000000000000e-01) (2, 5, 5.00000000000000000000e-01) (2, 5, 5.00000000000000000000e-01) (2, 5, 5.00000000000000000000e-01) (2, 5, 5.00000000000000000000e-01) (2, 5, 5.00000000000000000000e-01) (2, 5, 5.00000000000000000000e-01) (2, 5, 5.00000000000000000000e-01) (2, 5, 5.00000000000000000000e-01) (2, 5, 5.00000000000000000000e-01) (2, 5, 5.00000000000000000000e-01) (2, 5, 5.00000000000000000000e-01) (2, 5, 5.00000000000000000000e-01) (2, 5, 5.00000000000000000000e-01) (2, 5, 5.00000000000000000000e-01) (2, 5, 5.00000000000000000000e-01) (2, 5, 5.00000000000000000000e-01) (2, 5, 5.00000000000000000000e-01) (2, 5, 5.00000000000000000000e-01) (2, 5, 5.00000000000000000000e-01) (2, 5, 5.00000000000000000000e-01) (2, 5, 5.00000000000000000000e-01) (2, 5, 5.00000000000000000000e-01) (2, 5, 5.00000000000000000000e-01) (2, 5, 5.00000000000000000000e-01) (2, 5, 5.00000000000000000000e-01) (2, 5, 5.00000000000000000000e-01) (2, 5, 5.00000000000000000000e-01) (2, 5, 5.00000000000000000000e-01) (2, 5, 5.00000000000000000000e-01) (2, 5, 5.00000000000000000000e-01) (2, 5, 5.00000000000000000000e-01) (2, 5, 5.00000000000000000000e-01) (2, 5, 5.00000000000000000000e-01) (2, 5, 5.00000000000000000000e-01) (2, 5, 5.00000000000000000000e-01) (2, 5, 5.00000000000000000000e-01) (2, 5, 5.00000000000000000000e-01) (2, 5, 5.00000000000000000000e-01) (2, 5, 5.00000000000000000000e-01) (2, 5, 5.00000000000000000000e-01) (2, 5, 5.00000000000000000000e-01) (2, 5, 5.00000000000000000000e-01) (2, 5, 5.00000000000000000000e-01) (2, 5, 5.00000000000000000000e-01) (2, 5, 5.00000000000000000000e-01) (2, 5, 5.00000000000000000000e-01) (2, 5, 5.00000000000000000000e-01) (2, 5, 5.00000000000000000000e-01) (2, 5, 5.00000000000000000000e-01) (2, 5, 5.00000000000000000000e-01) (2, 5, 5.00000000000000000000e-01) (2, 5, 5.00000000000000000000e-01) (2, 5, 5.00000000000000000000e-01) (2, 5, 5.00000000000000000000e-01) (2, 5, 5.00000000000000000000e-01) (2, 5, 5.00000000000000000000e-01) (2, 5, 5.00000000000000000000e-01) (2, 5, 5.00000000000000000000e-01) (2, 5, 5.00000000000000000000e-01) (2, 5, 5.00000000000000000000e-01) (2, 5, 5.00000000000000000000e-01) (2, 5, 5.00000000000000000000e-01) (2, 5, 5.00000000000000000000e-01) (2, 5, 5.00000000000000000000e-01) (2, 5, 5.00000000000000000000e-01) (2, 5, 5.00000000000000000000e-01) (2, 5, 5.00000000000000000000e-01) (2, 5, 5.00000000000000000000e-01) (2, 5, 5.00000000000000000000e-01) (2, 5, 5.00000000000000000000e-01) (2, 5, 5.00000000000000000000e-01) (2, 5, 5.00000000000000000000e-01) (2, 5, 5.00000000000000000000e-01) (2, 5, 5.00000000000000000000e-01) (2, 5, 5.00000000000000000000e-01) (2, 5, 5.00000000000000000000e-01) (2, 5, 5.00000000000000000000e-01) (2, 5, 5.00000000000000000000e-01) (2, 5, 5.00000000000000000000e-01) (2, 5, 5.00000000000000000000e-01) (2, 5, 5.00000000000000000000e-01) (2, 5, 5.00000000000000000000e-01) (2, 5, 5.00000000000000000000e-01) (2, 5, 5.00000000000000000000e-01) (2, 5, 5.00000000000000000000e-01) (2, 5, 5.00000000000000000000e-01) (2, 5, 5.00000000000000000000e-01) (2, 5, 5.00000000000000000000e-01) (2, 5, 5.00000000000000000000e-01) (2, 5, 5.00000000000000000000e-01) (2, 5, 5.00000000000000000000e-01) (2, 5, 5.00000000000000000000e-01) (2, 5, 5.00000000000000000000e-01) (2, 5, 5.00000000000000000000e-01) (2, 5, 5.00000000000000000000e-01) (2, 5, 5.00000000000000000000e-01) (2, 5, 5.00000000000000000000e-01) (2, 5, 5.00000000000000000000e-01) (2, 5, 5.00000000000000000000e-01) (2, 5, 5.00000000000000000000e-01) (2, 5, 5.00000000000000000000e-01) (2, 5, 5.00000000000000000000e-01) (2, 5, 5.00000000000000000000e-01) (2, 5, 5.00000000000000000000e-01) (2, 5, 5.00000000000000000000e-01) (2, 5, 5.00000000000000000000e-01) (2, 5, 5.00000000000000000000e-01) (2, 5, 5.00000000000000000000e-01) (2, 5, 5.00000000000000000000e-01) (2, 5, 5.00000000000000000000e-01) (2, 5, 5.00000000000000000000e-01) (2, 5, 5.00000000000000000000e-01) (2, 5, 5.00000000000000000000e-01) (2, 5, 5.00000000000000000000e-01) (2, 5, 5.00000000000000000000e-01) (2, 5, 5.00000000000000000000e-01) (2, 5, 5.00000000000000000000e-01) (2, 5, 5.00000000000000000000e-01) (2, 5, 5.00000000000000000000e-01) (2, 5, 5.00000000000000000000e-01) (2, 5, 5.00000000000000000000e-01) (2, 5, 5.00000000000000000000e-01) (2, 5, 5.00000000000000000000e-01) (2, 5, 5.00000000000000000000e-01) (2, 5, 5.00000000000000000000e-01) (2, 5, 5.00000000000000000000e-01) (2, 5, 5.00000000000000000000e-01) (2, 5, 5.00000000000000000000e-01) (2, 5, 5.00000000000000000000e-01) (2, 5, 5.00000000000000000000e-01) (2, 5, 5.00000000000000000000e-01) (2, 5, 5.00000000000000000000e-01) (2, 5, 5.00000000000000000000e-01) (2, 5, 5.00000000000000000000e-01) (2, 5, 5.00000000000000000000e-01) (2, 5, 5.00000000000000000000e-01) (2, 5, 5.00000000000000000000e-01) (2, 5, 5.00000000000000000000e-01) (2, 5, 5.00000000000000000000e-01) (2, 5, 5.00000000000000000000e-01) (2, 5, 5.00000000000000000000e-01) (2, 5, 5.00000000000000000000e-01) (2, 5, 5.00000000000000000000e-01) (2, 5, 5.00000000000000000000e-01) (2, 5, 5.00000000000000000000e-01) (2, 5, 5.00000000000000000000e-01) (2, 5, 5.00000000000000000000e-01) (2, 5, 5.00000000000000000000e-01) (2, 5, 5.00000000000000000000e-01) (2, 5, 5.00000000000000000000e-01) (2, 5, 5.00000000000000000000e-01) (2, 5, 5.00000000000000000000e-01) (2, 5, 5.00000000000000000000e-01) (2, 5, 5.00000000000000000000e-01) (2, 5, 5.00000000000000000000e-01) (2, 5, 5.00000000000000000000e-01) (2, 5, 5.00000000000000000000e-01) (2, 5, 5.00000000000000000000e-01) (2, 5, 5.00000000000000000000e-01) (2, 5, 5.00000000000000000000e-01) (2, 5, 5.00000000000000000000e-01) (2, 5, 5.00000000000000000000e-01) (2, 5, 5.00000000000000000000e-01) (2, 5, 5.00000000000000000000e-01) (2, 5, 5.00000000000000000000e-01) (2, 5, 5.00000000000000000000e-01) (2, 5, 5.00000000000000000000e-01) (2, 5, 5.00000000000000000000e-01) (2, 5, 5.00000000000000000000e-01) (2, 5, 5.00000000000000000000e-01) (2, 5, 5.00000000000000000000e-01) (2, 5, 5.00000000000000000000e-01) (2, 5, 5.00000000000000000000e-01) (2, 5, 5.00000000000000000000e-01) (2, 5, 5.00000000000000000000e-01) (2, 5, 5.00000000000000000000e-01) (2, 5, 5.00000000000000000000e-01) (2, 5, 5.00000000000000000000e-01) (2, 5, 5.00000000000000000000e-01) (2, 5, 5.00000000000000000000e-01) (2, 5, 5.00000000000000000000e-01) (2, 5, 5.00000000000000000000e-01) (2, 5, 5.00000000000000000000e-01) (2, 5, 5.00000000000000000000e-01) (2, 5, 5.00000000000000000000e-01) (2, 5, 5.00000000000000000000e-01) (2, 5, 5.00000000000000000000e-01) (2, 5, 5.00000000000000000000e-01) (2, 5, 5.00000000000000000000e-01) (2, 5, 5.00000000000000000000e-01) (2, 5, 5.00000000000000000000e-01) (2, 5, 5.00000000000000000000e-01) (2, 5, 5.00000000000000000000e-01) (2, 5, 5.00000000000000000000e-01) (2, 5, 5.00000000000000000000e-01) (2, 5, 5.00000000000000000000e-01) (2, 5, 5.00000000000000000000e-01) (2, 5, 5.00000000000000000000e-01) (2, 5, 5.00000000000000000000e-01) (2, 5, 5.00000000000000000000e-01) (2, 5, 5.00000000000000000000e-01) (2, 5, 5.00000000000000000000e-01) (2, 5, 5.00000000000000000000e-01) (2, 5, 5.00000000000000000000e-01) (2, 5, 5.00000000000000000000e-01) (2, 5, 5.00000000000000000000e-01) (2, 5, 5.00000000000000000000e-01) (2, 5, 5.00000000000000000000e-01) (2, 5, 5.00000000000000000000e-01) (2, 5, 5.00000000000000000000e-01) (2, 5, 5.00000000000000000000e-01) (2, 5, 5.00000000000000000000e-01) (2, 5, 5.00000000000000000000e-01) (2, 5, 5.00000000000000000000e-01) (2, 5, 5.00000000000000000000e-01) (2, 5, 5.00000000000000000000e-01) (2, 5, 5.00000000000000000000e-01) (2, 5, 5.00000000000000000000e-01) (2, 5, 5.00000000000000000000e-01) (2, 5, 5.00000000000000000000e-01) (2, 5, 5.00000000000000000000e-01) (2, 5, 5.00000000000000000000e-01) (2, 5, 5.00000000000000000000e-01) (2, 5, 5.00000000000000000000e-01) (2, 5, 5.00000000000000000000e-01) (2, 5, 5.00000000000000000000e-01) (2, 5, 5.00000000000000000000e-01) (2, 5, 5.00000000000000000000e-01) (2, 5, 5.00000000000000000000e-01) (2, 5, 5.00000000000000000000e-01) (2, 5, 5.00000000000000000000e-01) (2, 5, 5.00000000000000000000e-01) (2, 5, 5.00000000000000000000e-01) (2, 5, 5.00000000000000000000e-01) (2, 5, 5.00000000000000000000e-01) (2, 5, 5.00000000000000000000e-01) (2, 5, 5.00000000000000000000e-01) (2, 5, 5.00000000000000000000e-01) (2, 5, 5.00000000000000000000e-01) (2, 5, 5.00000000000000000000e-01) (2, 5, 5.00000000000000000000e-01) (2, 5, 5.00000000000000000000e-01) (2, 5, 5.00000000000000000000e-01) (2, 5, 5.00000000000000000000e-01) (2, 5, 5.00000000000000000000e-01) (2, 5, 5.00000000000000000000e-01) (2, 5, 5.00000000000000000000e-01) (2, 5, 5.00000000000000000000e-01) (2, 5, 5.00000000000000000000e-01) (2, 5, 5.00000000000000000000e-01) (2, 5, 5.00000000000000000000e-01) (2, 5, 5.00000000000000000000e-01) (2, 5, 5.00000000000000000000e-01) (2, 5, 5.00000000000000000000e-01) (2, 5, 5.00000000000000000000e-01) (2, 5, 5.00000000000000000000e-01) (2, 5, 5.00000000000000000000e-01) (2, 5, 5.00000000000000000000e-01) (2, 5, 5.00000000000000000000e-01) (2, 5, 5.00000000000000000000e-01) (2, 5, 5.00000000000000000000e-01) (2, 5, 5.00000000000000000000e-01) (2, 5, 5.00000000000000000000e-01) (2, 5, 5.00000000000000000000e-01) (2, 5, 5.00000000000000000000e-01) (2, 5, 5.00000000000000000000e-01) (2, 5, 5.00000000000000000000e-01) (2, 5, 5.00000000000000000000e-01) (2, 5, 5.00000000000000000000e-01) (2, 5, 5.00000000000000000000e-01) (2, 5, 5.00000000000000000000e-01) (2, 5, 5.00000000000000000000e-01) (2, 5, 5.00000000000000000000e-01) (2, 5, 5.00000000000000000000e-01) (2, 5, 5.00000000000000000000e-01) (2, 5, 5.00000000000000000000e-01) (2, 5, 5.00000000000000000000e-01) (2, 5, 5.00000000000000000000e-01) (2, 5, 5.00000000000000000000e-01) (2, 5, 5.00000000000000000000e-01) (2, 5, 5.00000000000000000000e-01) (2, 5, 5.00000000000000000000e-01) (2, 5, 5.00000000000000000000e-01) (2, 5, 5.00000000000000000000e-01) (2, 5, 5.00000000000000000000e-01) (2, 5, 5.00000000000000000000e-01) (2, 5, 5.00000000000000000000e-01) (2, 5, 5.00000000000000000000e-01) (2, 5, 5.00000000000000000000e-01) (2, 5, 5.00000000000000000000e-01) (2, 5, 5.00000000000000000000e-01) (2, 5, 5.00000000000000000000e-01) (2, 5, 5.00000000000000000000e-01) (2, 5, 5.00000000000000000000e-01) (2, 5, 5.00000000000000000000e-01) (2, 5, 5.00000000000000000000e-01) (2, 5, 5.00000000000000000000e-01) (2, 5, 5.00000000000000000000e-01) (2, 5, 5.00000000000000000000e-01) (2, 5, 5.00000000000000000000e-01) (2, 5, 5.00000000000000000000e-01) (2, 5, 5.00000000000000000000e-01) (2, 5, 5.00000000000000000000e-01) (2, 5, 5.00000000000000000000e-01) (2, 5, 5.00000000000000000000e-01) (2, 5, 5.00000000000000000000e-01) (2, 5, 5.00000000000000000000e-01) (2, 5, 5.00000000000000000000e-01) (2, 5, 5.00000000000000000000e-01) (2, 5, 5.00000000000000000000e-01) (2, 5, 5.00000000000000000000e-01) (2, 5, 5.00000000000000000000e-01) (2, 5, 5.00000000000000000000e-01) (2, 5, 5.00000000000000000000e-01) (2, 5, 5.00000000000000000000e-01) (2, 5, 5.00000000000000000000e-01) (2, 5, 5.00000000000000000000e-01) (2, 5, 5.00000000000000000000e-01) (2, 5, 5.00000000000000000000e-01) (2, 5, 5.00000000000000000000e-01) (2, 5, 5.00000000000000000000e-01) (2, 5, 5.00000000000000000000e-01) (2, 5, 5.00000000000000000000e-01) (2, 5, 5.00000000000000000000e-01) (2, 5, 5.00000000000000000000e-01) (2, 5, 5.00000000000000000000e-01) (2, 5, 5.00000000000000000000e-01) (2, 5, 5.00000000000000000000e-01) (2, 5, 5.00000000000000000000e-01) (2, 5, 5.00000000000000000000e-01) (2, 5, 5.00000000000000000000e-01) (2, 5, 5.00000000000000000000e-01) (2, 5, 5.00000000000000000000e-01) (2, 5, 5.00000000000000000000e-01) (2, 5, 5.00000000000000000000e-01) (2, 5, 5.00000000000000000000e-01) (2, 5, 5.00000000000000000000e-01) (2, 5, 5.00000000000000000000e-01) (2, 5, 5.00000000000000000000e-01) (2, 5, 5.00000000000000000000e-01) (2, 5, 5.00000000000000000000e-01) (2, 5, 5.00000000000000000000e-01) (2, 5, 5.00000000000000000000e-01) (2, 5, 5.00000000000000000000e-01) (2, 5, 5.00000000000000000000e-01) (2, 5, 5.00000000000000000000e-01) (2, 5, 5.00000000000000000000e-01) (2, 5, 5.00000000000000000000e-01) (2, 5, 5.00000000000000000000e-01) (2, 5, 5.00000000000000000000e-01) (2, 5, 5.00000000000000000000e-01) (2, 5, 5.00000000000000000000e-01) (2, 5, 5.00000000000000000000e-01) (2, 5, 5.00000000000000000000e-01) (2, 5, 5.00000000000000000000e-01) (2, 5, 5.00000000000000000000e-01) (2, 5, 5.00000000000000000000e-01) (2, 5, 5.00000000000000000000e-01) (2, 5, 5.00000000000000000000e-01) (2, 5, 5.00000000000000000000e-01) (2, 5, 5.00000000000000000000e-01) (2, 5, 5.00000000000000000000e-01) (2, 5, 5.00000000000000000000e-01) (2, 5, 5.00000000000000000000e-01) (2, 5, 5.00000000000000000000e-01) (2, 5, 5.00000000000000000000e-01) (2, 5, 5.00000000000000000000e-01) (2, 5, 5.00000000000000000000e-01) (2, 5, 5.00000000000000000000e-01) (2, 5, 5.00000000000000000000e-01) (2, 5, 5.00000000000000000000e-01) (2, 5, 5.00000000000000000000e-01) (2, 5, 5.00000000000000000000e-01) (2, 5, 5.00000000000000000000e-01) (2, 5, 5.00000000000000000000e-01) (2, 5, 5.00000000000000000000e-01) (2, 5, 5.00000000000000000000e-01) (2, 5, 5.00000000000000000000e-01) (2, 5, 5.00000000000000000000e-01) (2, 5, 5.00000000000000000000e-01) (2, 5, 5.00000000000000000000e-01) (2, 5, 5.00000000000000000000e-01) (2, 5, 5.00000000000000000000e-01) (2, 5, 5.00000000000000000000e-01) (2, 5, 5.00000000000000000000e-01) (2, 5, 5.00000000000000000000e-01) (2, 5, 5.00000000000000000000e-01) (2, 5, 5.00000000000000000000e-01) (2, 5, 5.00000000000000000000e-01) (2, 5, 5.00000000000000000000e-01) (2, 5, 5.00000000000000000000e-01) (2, 5, 5.00000000000000000000e-01) (2, 5, 5.00000000000000000000e-01) (2, 5, 5.00000000000000000000e-01) (2, 5, 5.00000000000000000000e-01) (2, 5, 5.00000000000000000000e-01) (2, 5, 5.00000000000000000000e-01) (2, 5, 5.00000000000000000000e-01) (2, 5, 5.00000000000000000000e-01) (2, 5, 5.00000000000000000000e-01) (2, 5, 5.00000000000000000000e-01) (2, 5, 5.00000000000000000000e-01) (2, 5, 5.00000000000000000000e-01) (2, 5, 5.00000000000000000000e-01) (2, 5, 5.00000000000000000000e-01) (2, 5, 5.00000000000000000000e-01) (2, 5, 5.00000000000000000000e-01) (2, 5, 5.00000000000000000000e-01) (2, 5, 5.00000000000000000000e-01) (2, 5, 5.00000000000000000000e-01) (2, 5, 5.00000000000000000000e-01) (2, 5, 5.00000000000000000000e-01) (2, 5, 5.00000000000000000000e-01) (2, 5, 5.00000000000000000000e-01) (2, 5, 5.00000000000000000000e-01) (2, 5, 5.00000000000000000000e-01) (2, 5, 5.00000000000000000000e-01) (2, 5, 5.00000000000000000000e-01) (2, 5, 5.00000000000000000000e-01) (2, 5, 5.00000000000000000000e-01) (2, 5, 5.00000000000000000000e-01) (2, 5, 5.00000000000000000000e-01) (2, 5, 5.00000000000000000000e-01) (2, 5, 5.00000000000000000000e-01) (2, 5, 5.00000000000000000000e-01) (2, 5, 5.00000000000000000000e-01) (2, 5, 5.00000000000000000000e-01) (2, 5, 5.00000000000000000000e-01) (2, 5, 5.00000000000000000000e-01) (2, 5, 5.00000000000000000000e-01) (2, 5, 5.00000000000000000000e-01) (2, 5, 5.00000000000000000000e-01) (2, 5, 5.00000000000000000000e-01) (2, 5, 5.00000000000000000000e-01) (2, 5, 5.00000000000000000000e-01) (2, 5, 5.00000000000000000000e-01) (2, 5, 5.00000000000000000000e-01) (2, 5, 5.00000000000000000000e-01) (2, 5, 5.00000000000000000000e-01) (2, 5, 5.00000000000000000000e-01) (2, 5, 5.00000000000000000000e-01) (2, 5, 5.00000000000000000000e-01) (2, 5, 5.00000000000000000000e-01) (2, 5, 5.00000000000000000000e-01) (2, 5, 5.00000000000000000000e-01) (2, 5, 5.00000000000000000000e-01) (2, 5, 5.00000000000000000000e-01) (2, 5, 5.00000000000000000000e-01) (2, 5, 5.00000000000000000000e-01) (2, 5, 5.00000000000000000000e-01) (2, 5, 5.00000000000000000000e-01) (2, 5, 5.00000000000000000000e-01) (2, 5, 5.00000000000000000000e-01) (2, 5, 5.00000000000000000000e-01) (2, 5, 5.00000000000000000000e-01) (2, 5, 5.00000000000000000000e-01) (2, 5, 5.00000000000000000000e-01) (2, 5, 5.00000000000000000000e-01) (2, 5, 5.00000000000000000000e-01) (2, 5, 5.00000000000000000000e-01) (2, 5, 5.00000000000000000000e-01) (2, 5, 5.00000000000000000000e-01) (2, 5, 5.00000000000000000000e-01) (2, 5, 5.00000000000000000000e-01) (2, 5, 5.00000000000000000000e-01) (2, 5, 5.00000000000000000000e-01) (2, 5, 5.00000000000000000000e-01) (2, 5, 5.00000000000000000000e-01) (2, 5, 5.00000000000000000000e-01) (2, 5, 5.00000000000000000000e-01) (2, 5, 5.00000000000000000000e-01) (2, 5, 5.00000000000000000000e-01) (2, 5, 5.00000000000000000000e-01) (2, 5, 5.00000000000000000000e-01) (2, 5, 5.00000000000000000000e-01) (2, 5, 5.00000000000000000000e-01) (2, 5, 5.00000000000000000000e-01) (2, 5, 5.00000000000000000000e-01) (2, 5, 5.00000000000000000000e-01) (2, 5, 5.00000000000000000000e-01) (2, 5, 5.00000000000000000000e-01) (2, 5, 5.00000000000000000000e-01) (2, 5, 5.00000000000000000000e-01) (2, 5, 5.00000000000000000000e-01) (2, 5, 5.00000000000000000000e-01) (2, 5, 5.00000000000000000000e-01) (2, 5, 5.00000000000000000000e-01) (2, 5, 5.00000000000000000000e-01) (2, 5, 5.00000000000000000000e-01) (2, 5, 5.00000000000000000000e-01) (2, 5, 5.00000000000000000000e-01) (2, 5, 5.00000000000000000000e-01) (2, 5, 5.00000000000000000000e-01) (2, 5, 5.00000000000000000000e-01) (2, 5, 5.00000000000000000000e-01) (2, 5, 5.00000000000000000000e-01) (2, 5, 5.00000000000000000000e-01) (2, 5, 5.00000000000000000000e-01) (2, 5, 5.00000000000000000000e-01) (2, 5, 5.00000000000000000000e-01) (2, 5, 5.00000000000000000000e-01) (2, 5, 5.00000000000000000000e-01) (2, 5, 5.00000000000000000000e-01) (2, 5, 5.00000000000000000000e-01) (2, 5, 5.00000000000000000000e-01) (2, 5, 5.00000000000000000000e-01) (2, 5, 5.00000000000000000000e-01) (2, 5, 5.00000000000000000000e-01) (2, 5, 5.00000000000000000000e-01) (2, 5, 5.00000000000000000000e-01) (2, 5, 5.00000000000000000000e-01) (2, 5, 5.00000000000000000000e-01) (2, 5, 5.00000000000000000000e-01) (2, 5, 5.00000000000000000000e-01) (2, 5, 5.00000000000000000000e-01) (2, 5, 5.00000000000000000000e-01) (2, 5, 5.00000000000000000000e-01) (2, 5, 5.00000000000000000000e-01) (2, 5, 5.00000000000000000000e-01) (2, 5, 5.00000000000000000000e-01) (2, 5, 5.00000000000000000000e-01) (2, 5, 5.00000000000000000000e-01) (2, 5, 5.00000000000000000000e-01) (2, 5, 5.00000000000000000000e-01) (2, 5, 5.00000000000000000000e-01) (2, 5, 5.00000000000000000000e-01) (2, 5, 5.00000000000000000000e-01) (2, 5, 5.00000000000000000000e-01) (2, 5, 5.00000000000000000000e-01) (2, 5, 5.00000000000000000000e-01) (2, 5, 5.00000000000000000000e-01) (2, 5, 5.00000000000000000000e-01) (2, 5, 5.00000000000000000000e-01) (2, 5, 5.00000000000000000000e-01) (2, 5, 5.00000000000000000000e-01) (2, 5, 5.00000000000000000000e-01) (2, 5, 5.00000000000000000000e-01) (2, 5, 5.00000000000000000000e-01) (2, 5, 5.00000000000000000000e-01) (2, 5, 5.00000000000000000000e-01) (2, 5, 5.00000000000000000000e-01) (2, 5, 5.00000000000000000000e-01) (2, 5, 5.00000000000000000000e-01) (2, 5, 5.00000000000000000000e-01) (2, 5, 5.00000000000000000000e-01) (2, 5, 5.00000000000000000000e-01) (2, 5, 5.00000000000000000000e-01) (2, 5, 5.00000000000000000000e-01) (2, 5, 5.00000000000000000000e-01) (2, 5, 5.00000000000000000000e-01) (2, 5, 5.00000000000000000000e-01) (2, 5, 5.00000000000000000000e-01) (2, 5, 5.00000000000000000000e-01) (2, 5, 5.00000000000000000000e-01) (2, 5, 5.00000000000000000000e-01) (2, 5, 5.00000000000000000000e-01) (2, 5, 5.00000000000000000000e-01) (2, 5, 5.00000000000000000000e-01) (2, 5, 5.00000000000000000000e-01) (2, 5, 5.00000000000000000000e-01) (2, 5, 5.00000000000000000000e-01) (2, 5, 5.00000000000000000000e-01) (2, 5, 5.00000000000000000000e-01) (2, 5, 5.00000000000000000000e-01) (2, 5, 5.00000000000000000000e-01) (2, 5, 5.00000000000000000000e-01) (2, 5, 5.00000000000000000000e-01) (2, 5, 5.00000000000000000000e-01) (2, 5, 5.00000000000000000000e-01) (2, 5, 5.00000000000000000000e-01) (2, 5, 5.00000000000000000000e-01) (2, 5, 5.00000000000000000000e-01) (2, 5, 5.00000000000000000000e-01) (2, 5, 5.00000000000000000000e-01) (2, 5, 5.00000000000000000000e-01) (2, 5, 5.00000000000000000000e-01) (2, 5, 5.00000000000000000000e-01) (2, 5, 5.00000000000000000000e-01) (2, 5, 5.00000000000000000000e-01) (2, 5, 5.00000000000000000000e-01) (2, 5, 5.00000000000000000000e-01) (2, 5, 5.00000000000000000000e-01) (2, 5, 5.00000000000000000000e-01) (2, 5, 5.00000000000000000000e-01) (2, 5, 5.00000000000000000000e-01) (2, 5, 5.00000000000000000000e-01) (2, 5, 5.00000000000000000000e-01) (2, 5, 5.00000000000000000000e-01) (2, 5, 5.00000000000000000000e-01) (2, 5, 5.00000000000000000000e-01) (2, 5, 5.00000000000000000000e-01) (2, 5, 5.00000000000000000000e-01) (2, 5, 5.00000000000000000000e-01) (2, 5, 5.00000000000000000000e-01) (2, 5, 5.00000000000000000000e-01) (2, 5, 5.00000000000000000000e-01) (2, 5, 5.00000000000000000000e-01) (0, 5, 0.00000000000000000000e+00) (1001, 5, 5.00000000000000000000e-01) (0, 5, 0.00000000000000000000e+00) 
connections (connected_to_neuron, weight)=(0, 6.10387086868286132812e-01) (1, 3.59538841247558593750e+00) (0, 8.63276290893554687500e+00) (1, 1.22939145565032958984e+00) (0, -3.86473953723907470703e-01) (1, 3.19984531402587890625e+00) (0, 6.14486503601074218750e+00) (1, 1.15152263641357421875e+00) (0, -7.82723352313041687012e-02) (1, 2.59246754646301269531e+00) (0, 8.65829372406005859375e+00) (1, 1.32015717029571533203e+00) (0, 3.78899484872817993164e-01) (1, 2.29850506782531738281e+00) (0, -3.37744876742362976074e-02) (1, 2.07612323760986328125e+00) (0, 8.63304328918457031250e+00) (1, 1.20423340797424316406e+00) (0, 8.65243816375732421875e+00) (1, 1.31168544292449951172e+00) (0, 7.37805306911468505859e-01) (1, 3.26042532920837402344e+00) (0, 6.12933683395385742188e+00) (1, 1.07255303859710693359e+00) (0, -8.74770246446132659912e-03) (1, 6.53007328510284423828e-01) (0, 3.50671678781509399414e-01) (1, 2.15199160575866699219e+00) (0, -4.62230890989303588867e-02) (1, -2.69360160827636718750e+00) (0, 2.83985805511474609375e+00) (1, 1.31579327583312988281e+00) (0, -2.31706500053405761719e-01) (1, 1.36803174018859863281e+00) (0, 2.84984254837036132812e+00) (1, 1.20873391628265380859e+00) (0, -7.03859999775886535645e-02) (1, -2.66790509223937988281e+00) (0, -1.88109681010246276855e-01) (1, 3.76375651359558105469e+00) (0, -9.23477765172719955444e-03) (1, 1.86240673065185546875e+00) (0, 8.66094017028808593750e+00) (1, 1.30954957008361816406e+00) (0, -1.78220774978399276733e-02) (1, 1.73089361190795898438e+00) (0, -8.08957871049642562866e-03) (1, 1.36119222640991210938e+00) (0, -6.76001757383346557617e-02) (1, -2.60200715065002441406e+00) (0, -8.04007947444915771484e-02) (1, 2.65627932548522949219e+00) (0, 8.64845561981201171875e+00) (1, 1.22472882270812988281e+00) (0, 8.63860130310058593750e+00) (1, 1.21909308433532714844e+00) (0, 2.83389759063720703125e+00) (1, 1.22450256347656250000e+00) (0, 8.64908599853515625000e+00) (1, 1.47998797893524169922e+00) (0, 8.65848064422607421875e+00) (1, 1.28699076175689697266e+00) (0, 7.54924118518829345703e-01) (1, 3.37919926643371582031e+00) (0, 3.69755238294601440430e-01) (1, 2.09073591232299804688e+00) (0, -4.35162708163261413574e-02) (1, -2.69363045692443847656e+00) (0, 8.63949680328369140625e+00) (1, 1.19450855255126953125e+00) (0, 7.10330188274383544922e-01) (1, 3.45293307304382324219e+00) (0, 7.00123190879821777344e-01) (1, 3.47738933563232421875e+00) (0, 7.32235372066497802734e-01) (1, 3.30102229118347167969e+00) (0, 8.63213062286376953125e+00) (1, 1.21480441093444824219e+00) (0, 8.63578796386718750000e+00) (1, 1.27825736999511718750e+00) (0, 8.64386940002441406250e+00) (1, 1.26218914985656738281e+00) (0, 1.01923547685146331787e-01) (1, -4.09371584653854370117e-01) (0, 7.10996448993682861328e-01) (1, 3.41693162918090820312e+00) (0, 2.84141826629638671875e+00) (1, 1.32688188552856445312e+00) (0, 2.75992532260715961456e-03) (1, 5.07398903369903564453e-01) (0, 2.08546258509159088135e-02) (1, 4.94688868522644042969e-01) (0, 7.58387684822082519531e-01) (1, 3.36140704154968261719e+00) (0, 8.63541126251220703125e+00) (1, 1.22029983997344970703e+00) (0, 8.95488321781158447266e-01) (1, 3.25388383865356445312e+00) (0, 1.17403818294405937195e-02) (1, 6.00388586521148681641e-01) (0, -1.18916764855384826660e-01) (1, -2.92062616348266601562e+00) (0, 6.14773082733154296875e+00) (1, 1.17501008510589599609e+00) (0, 3.69435903849080204964e-04) (1, 5.58649897575378417969e-01) (0, 1.14088151603937149048e-02) (1, -1.77692878246307373047e+00) (0, -1.00322306156158447266e-01) (1, -2.86355185508728027344e+00) (0, 2.71863281726837158203e-01) (1, 2.40186476707458496094e+00) (0, 8.66177082061767578125e+00) (1, 1.53420758247375488281e+00) (0, 5.63900964334607124329e-03) (1, -2.64668393135070800781e+00) (0, 2.83717918395996093750e+00) (1, 1.24104917049407958984e+00) (0, -6.49417415261268615723e-02) (1, -2.69472074508666992188e+00) (0, 7.03574717044830322266e-01) (1, 3.43802285194396972656e+00) (0, 8.62935638427734375000e+00) (1, 1.17091703414916992188e+00) (0, 7.66617953777313232422e-01) (1, 3.30871343612670898438e+00) (0, 1.04298830032348632812e-01) (1, -7.38723576068878173828e-01) (0, -1.33564233779907226562e-01) (1, -2.96530985832214355469e+00) (0, 1.16293586790561676025e-01) (1, -1.77537798881530761719e+00) (0, 9.14805114269256591797e-01) (1, 4.49112796783447265625e+00) (0, 1.46732246503233909607e-02) (1, 7.48523533344268798828e-01) (0, 6.14322996139526367188e+00) (1, 1.14036178588867187500e+00) (0, 6.13369274139404296875e+00) (1, 1.09735739231109619141e+00) (0, 8.64214515686035156250e+00) (1, 1.26235318183898925781e+00) (0, -4.68503171578049659729e-03) (1, 1.35724008083343505859e+00) (0, 8.61913871765136718750e+00) (1, 1.21719372272491455078e+00) (0, 6.12360954284667968750e+00) (1, 1.09349286556243896484e+00) (0, 5.66953280940651893616e-03) (1, -2.65518665313720703125e+00) (0, -5.13839870691299438477e-02) (1, -2.63726544380187988281e+00) (0, 8.63000965118408203125e+00) (1, 1.14406430721282958984e+00) (0, 7.18538045883178710938e-01) (1, 3.40775918960571289062e+00) (0, 5.23213855922222137451e-03) (1, -2.60383915901184082031e+00) (0, 6.13738298416137695312e+00) (1, 1.08562958240509033203e+00) (0, 1.06772528961300849915e-02) (1, -7.47955381870269775391e-01) (0, -7.09583535790443420410e-02) (1, -2.65094137191772460938e+00) (0, 7.07816004753112792969e-01) (1, 3.46167325973510742188e+00) (0, 1.29897110164165496826e-02) (1, -1.78908419609069824219e+00) (0, 8.95730674266815185547e-01) (1, 4.57130813598632812500e+00) (0, 6.15578269958496093750e+00) (1, 1.20085024833679199219e+00) (0, -3.40976603329181671143e-02) (1, 2.12388753890991210938e+00) (0, -4.44949641823768615723e-02) (1, -2.71603274345397949219e+00) (0, 8.96175742149353027344e-01) (1, 3.22789072990417480469e+00) (0, 1.01126627996563911438e-02) (1, -1.81197619438171386719e+00) (0, 1.03401236236095428467e-01) (1, -3.48709315061569213867e-01) (0, 6.12449884414672851562e+00) (1, 9.05194878578186035156e-01) (0, 2.48971069231629371643e-03) (1, 5.22256016731262207031e-01) (0, -1.20917268097400665283e-01) (1, -2.88736748695373535156e+00) (0, 9.05965149402618408203e-01) (1, 2.85951828956604003906e+00) (0, 1.10286632552742958069e-02) (1, -1.79779601097106933594e+00) (0, 7.15858399868011474609e-01) (1, 3.47184681892395019531e+00) (0, 9.04545307159423828125e-01) (1, 4.52882385253906250000e+00) (0, -2.17561889439821243286e-02) (1, 1.98289394378662109375e+00) (0, 4.37501147389411926270e-02) (1, -4.33384567499160766602e-01) (0, 3.63444477319717407227e-01) (1, 2.48195433616638183594e+00) (0, 9.48896110057830810547e-02) (1, 6.93100094795227050781e-01) (0, 6.60827577114105224609e-01) (1, 3.74295735359191894531e+00) (0, 1.14313839003443717957e-02) (1, -1.81137704849243164062e+00) (0, 6.12441444396972656250e+00) (1, 1.06882703304290771484e+00) (0, 1.38241341337561607361e-02) (1, 7.21724927425384521484e-01) (0, 7.87264168262481689453e-01) (1, 3.71292257308959960938e+00) (0, 8.64114856719970703125e+00) (1, 1.23076987266540527344e+00) (0, -9.05849691480398178101e-03) (1, 1.41293430328369140625e+00) (0, 8.86250376701354980469e-01) (1, 3.63235545158386230469e+00) (0, 6.18030428886413574219e-01) (1, 3.59002137184143066406e+00) (0, -5.13997599482536315918e-02) (1, -2.63127422332763671875e+00) (0, 9.04525876045227050781e-01) (1, 3.18631649017333984375e+00) (0, 3.49394798278808593750e-01) (1, 2.79976677894592285156e+00) (0, 1.06250662356615066528e-02) (1, -1.74801194667816162109e+00) (0, -9.82596501708030700684e-02) (1, -2.84490656852722167969e+00) (0, -1.51903473306447267532e-03) (1, 6.89997136592864990234e-01) (0, 7.20872581005096435547e-01) (1, 3.36926555633544921875e+00) (0, 6.20604336261749267578e-01) (1, 3.51761794090270996094e+00) (0, 6.13542222976684570312e+00) (1, 1.10601162910461425781e+00) (0, 6.89522147178649902344e-01) (1, 3.34159374237060546875e+00) (0, 8.65501499176025390625e+00) (1, 1.30876791477203369141e+00) (0, 3.63041162490844726562e-01) (1, 2.54710602760314941406e+00) (0, 8.65343475341796875000e+00) (1, 1.29884290695190429688e+00) (0, -7.37177804112434387207e-02) (1, -2.63725447654724121094e+00) (0, -1.19867190718650817871e-01) (1, -3.06897926330566406250e+00) (0, 1.14581529051065444946e-02) (1, 6.61593735218048095703e-01) (0, 6.15063810348510742188e+00) (1, 1.18238341808319091797e+00) (0, 2.74267226457595825195e-01) (1, -1.31071686744689941406e+00) (0, 8.41782167553901672363e-02) (1, -1.54913675785064697266e+00) (0, -4.69998866319656372070e-02) (1, -2.67999505996704101562e+00) (0, 2.84220266342163085938e+00) (1, 1.20454216003417968750e+00) (0, 6.14361667633056640625e+00) (1, 1.14486730098724365234e+00) (0, -2.27630101144313812256e-02) (1, 2.05847120285034179688e+00) (0, 6.12618446350097656250e+00) (1, 1.08461177349090576172e+00) (0, 7.48154878616333007812e-01) (1, 4.56509733200073242188e+00) (0, -1.28726894035935401917e-02) (1, 1.41025459766387939453e+00) (0, 7.02900737524032592773e-02) (1, -4.45653647184371948242e-01) (0, -6.89694583415985107422e-02) (1, -2.85268783569335937500e+00) (0, 2.83959627151489257812e+00) (1, 1.23853361606597900391e+00) (0, -5.27776554226875305176e-02) (1, -2.59353995323181152344e+00) (0, 5.51413185894489288330e-03) (1, -2.61828351020812988281e+00) (0, 7.25728571414947509766e-01) (1, 3.31855487823486328125e+00) (0, 7.15997695922851562500e-01) (1, 3.42777276039123535156e+00) (0, 9.00550112128257751465e-02) (1, -4.44646060466766357422e-01) (0, -1.96962088346481323242e-01) (1, 3.59871912002563476562e+00) (0, -3.83528470993041992188e-02) (1, 2.23846030235290527344e+00) (0, -3.20834815502166748047e-02) (1, 1.88597154617309570312e+00) (0, 7.35457777976989746094e-01) (1, 3.26190209388732910156e+00) (0, 7.24957033526152372360e-04) (1, 1.25030970573425292969e+00) (0, 9.26588848233222961426e-02) (1, 5.25292992591857910156e-01) (0, -3.81645374000072479248e-02) (1, 2.23768615722656250000e+00) (0, 1.76043454557657241821e-02) (1, 1.19527399539947509766e+00) (0, 6.13384532928466796875e+00) (1, 1.11136531829833984375e+00) (0, 3.64592671394348144531e-01) (1, 2.40222215652465820312e+00) (0, -1.27816811203956604004e-01) (1, -3.03998279571533203125e+00) (0, 1.07675991952419281006e-01) (1, -4.58649873733520507812e-01) (0, 6.13732719421386718750e+00) (1, 1.12056148052215576172e+00) (0, -3.80293279886245727539e-03) (1, 1.20115590095520019531e+00) (0, 3.69309574365615844727e-01) (1, 2.24503326416015625000e+00) (0, 6.13356351852416992188e+00) (1, 1.11896312236785888672e+00) (0, -2.10008826106786727905e-02) (1, 1.66786313056945800781e+00) (0, -1.30449891090393066406e-01) (1, -2.99222540855407714844e+00) (0, 8.66009712219238281250e+00) (1, 1.30727744102478027344e+00) (0, -2.34332442283630371094e-01) (1, 6.05854034423828125000e-01) (0, -5.38973547518253326416e-02) (1, -2.57947587966918945312e+00) (0, -9.18699800968170166016e-02) (1, 2.53318119049072265625e+00) (0, 6.13264513015747070312e+00) (1, 1.11688697338104248047e+00) (0, 3.76915842294692993164e-01) (1, 3.23679137229919433594e+00) (0, -7.35539197921752929688e-02) (1, -2.64013290405273437500e+00) (0, 8.17172415554523468018e-03) (1, 1.34472620487213134766e+00) (0, 6.24683797359466552734e-01) (1, 3.52353000640869140625e+00) (0, 8.64469814300537109375e+00) (1, 1.24602234363555908203e+00) (0, 1.72089952975511550903e-02) (1, 4.02829647064208984375e-01) (0, 7.57711589336395263672e-01) (1, 3.34214448928833007812e+00) (0, 6.14903736114501953125e+00) (1, 1.18451821804046630859e+00) (0, 4.13951836526393890381e-02) (1, -1.84954118728637695312e+00) (0, 1.30240013822913169861e-02) (1, 6.02356314659118652344e-01) (0, 1.01506728678941726685e-02) (1, -1.78941869735717773438e+00) (0, 7.07979202270507812500e-01) (1, 3.45783996582031250000e+00) (0, 1.00655689835548400879e-01) (1, -5.71339488029479980469e-01) (0, 9.92685835808515548706e-03) (1, -7.99522280693054199219e-01) (0, -1.02618709206581115723e-02) (1, 6.53198540210723876953e-01) (0, 1.07368282973766326904e-01) (1, -4.53475356101989746094e-01) (0, -1.34181037545204162598e-01) (1, -2.95445704460144042969e+00) (0, 6.15522956848144531250e+00) (1, 1.14634120464324951172e+00) (0, 7.47636286541819572449e-03) (1, 1.16027176380157470703e+00) (0, -3.21129932999610900879e-02) (1, 1.91805720329284667969e+00) (0, 8.85773333720862865448e-04) (1, 5.30059635639190673828e-01) (0, -7.35832750797271728516e-02) (1, -2.84073638916015625000e+00) (0, 8.64550018310546875000e+00) (1, 1.28516077995300292969e+00) (0, 4.53030876815319061279e-02) (1, 5.32622635364532470703e-01) (0, 8.66079902648925781250e+00) (1, 1.32545697689056396484e+00) (0, 8.01543712615966796875e-01) (1, 3.75823569297790527344e+00) (0, 2.83606481552124023438e+00) (1, 1.29461371898651123047e+00) (0, 1.69994272291660308838e-02) (1, 5.69433569908142089844e-01) (0, 6.06374025344848632812e-01) (1, 3.62909650802612304688e+00) (0, 7.31192231178283691406e-01) (1, 3.33219242095947265625e+00) (0, -3.75097841024398803711e-02) (1, -2.66162633895874023438e+00) (0, 1.42669528722763061523e-01) (1, -1.75007355213165283203e+00) (0, -3.00256647169589996338e-02) (1, 1.79126846790313720703e+00) (0, -3.34132835268974304199e-02) (1, 1.98854160308837890625e+00) (0, 8.66263771057128906250e+00) (1, 1.52099001407623291016e+00) (0, 8.65760803222656250000e+00) (1, 1.27398109436035156250e+00) (0, 7.06948041915893554688e-01) (1, 3.47513151168823242188e+00) (0, 6.14863824844360351562e+00) (1, 1.07653367519378662109e+00) (0, 2.85004854202270507812e+00) (1, 1.23879551887512207031e+00) (0, 6.26753747463226318359e-01) (1, 3.47336387634277343750e+00) (0, 9.09096598625183105469e-01) (1, 4.51942300796508789062e+00) (0, 8.65566158294677734375e+00) (1, 1.45310842990875244141e+00) (0, 2.84715700149536132812e+00) (1, 1.24090754985809326172e+00) (0, 8.66297054290771484375e+00) (1, 1.31966507434844970703e+00) (0, -3.02050001919269561768e-02) (1, 1.74772965908050537109e+00) (0, -6.63698166608810424805e-02) (1, -2.62032032012939453125e+00) (0, 2.84020376205444335938e+00) (1, 1.27189731597900390625e+00) (0, -6.87682582065463066101e-03) (1, 1.50082421302795410156e+00) (0, 1.71589583624154329300e-03) (1, 4.68788236379623413086e-01) (0, 1.47158596664667129517e-02) (1, 4.30683761835098266602e-01) (0, 8.66154479980468750000e+00) (1, 1.28388679027557373047e+00) (0, 3.68409872055053710938e-01) (1, 2.30010676383972167969e+00) (0, -7.12393522262573242188e-02) (1, -2.82038092613220214844e+00) (0, 2.14677855372428894043e-01) (1, -1.46087729930877685547e+00) (0, 6.14760589599609375000e+00) (1, 1.07438361644744873047e+00) (0, 9.08302981406450271606e-03) (1, 6.26279592514038085938e-01) (0, -1.50914192199707031250e-02) (1, 1.50768208503723144531e+00) (0, -3.39981960132718086243e-03) (1, -2.51462817192077636719e+00) (0, -1.87420338392257690430e-01) (1, 3.73612070083618164062e+00) (0, 4.01520617306232452393e-02) (1, -5.19855380058288574219e-01) (0, 7.74692103732377290726e-04) (1, 9.75444018840789794922e-01) (0, 1.04365004226565361023e-02) (1, 4.44230526685714721680e-01) (0, 8.34412593394517898560e-03) (1, -2.73084306716918945312e+00) (0, 1.06493264436721801758e-01) (1, -5.22372782230377197266e-01) (0, 7.02908694744110107422e-01) (1, 3.55570340156555175781e+00) (0, -3.89167852699756622314e-02) (1, 2.38219118118286132812e+00) (0, -1.82131736073642969131e-03) (1, 5.48507869243621826172e-01) (0, 3.99373322725296020508e-02) (1, -2.47333034873008728027e-01) (0, 8.64268970489501953125e+00) (1, 1.24200630187988281250e+00) (0, 6.13800668716430664062e+00) (1, 1.14819741249084472656e+00) (0, -6.68470561504364013672e-02) (1, -2.74576807022094726562e+00) (0, 3.63204449415206909180e-01) (1, 2.51205945014953613281e+00) (0, 6.13885831832885742188e+00) (1, 1.05089473724365234375e+00) (0, 4.41262982785701751709e-02) (1, -3.89423996210098266602e-01) (0, -9.60156098008155822754e-02) (1, -2.66082358360290527344e+00) (0, 1.29960831254720687866e-02) (1, 5.61459541320800781250e-01) (0, 7.04221010208129882812e-01) (1, 3.47536921501159667969e+00) (0, 6.14580917358398437500e+00) (1, 1.15631806850433349609e+00) (0, 6.12738370895385742188e+00) (1, 1.07281351089477539062e+00) (0, 6.12405204772949218750e+00) (1, 9.29499685764312744141e-01) (0, 6.12287282943725585938e+00) (1, 8.83165597915649414062e-01) (0, 1.00616486743092536926e-02) (1, -1.83909928798675537109e+00) (0, -1.34671881794929504395e-01) (1, -2.94775676727294921875e+00) (0, 1.36941978707909584045e-02) (1, 4.69364792108535766602e-01) (0, 5.78749775886535644531e-01) (1, 3.52509951591491699219e+00) (0, 7.69606113433837890625e-01) (1, 3.29073572158813476562e+00) (0, 6.13000440597534179688e+00) (1, 1.09966850280761718750e+00) (0, -5.30090630054473876953e-02) (1, -2.58722567558288574219e+00) (0, 3.49120110273361206055e-01) (1, 2.63421082496643066406e+00) (0, 2.83942461013793945312e+00) (1, 1.29432511329650878906e+00) (0, -1.73318723682314157486e-03) (1, 7.57678925991058349609e-01) (0, -1.32194831967353820801e-01) (1, -2.96229910850524902344e+00) (0, -2.04589441418647766113e-02) (1, 1.90653133392333984375e+00) (0, 7.25600719451904296875e-01) (1, 3.36915969848632812500e+00) (0, 9.00796711444854736328e-01) (1, 4.54660081863403320312e+00) (0, 7.40728080272674560547e-01) (1, 3.17446994781494140625e+00) (0, 7.67244026064872741699e-02) (1, -1.54863166809082031250e+00) (0, 2.83701229095458984375e+00) (1, 1.24594593048095703125e+00) (0, -6.11578579992055892944e-03) (1, -2.48008918762207031250e+00) (0, 6.59705936908721923828e-01) (1, 3.74626898765563964844e+00) (0, 6.14084768295288085938e+00) (1, 1.16133165359497070312e+00) (0, 8.65543270111083984375e+00) (1, 1.26701390743255615234e+00) (0, -8.81619453430175781250e-02) (1, 2.61858105659484863281e+00) (0, 7.54349768161773681641e-01) (1, 3.33527207374572753906e+00) (0, 7.22927510738372802734e-01) (1, 3.38218045234680175781e+00) (0, 8.94749224185943603516e-01) (1, 3.24424242973327636719e+00) (0, 6.54978334903717041016e-01) (1, 3.73785781860351562500e+00) (0, 7.46088981628417968750e-01) (1, 3.13423967361450195312e+00) (0, -2.36813584342598915100e-03) (1, -2.68760824203491210938e+00) (0, 4.25555324181914329529e-03) (1, 4.41205531358718872070e-01) (0, -1.33539989590644836426e-01) (1, -2.96357750892639160156e+00) (0, -5.24114221334457397461e-02) (1, -2.68120002746582031250e+00) (0, 6.15459966659545898438e+00) (1, 1.20184969902038574219e+00) (0, -3.14831286668777465820e-02) (1, 1.86972749233245849609e+00) (0, 6.14327669143676757812e+00) (1, 1.10717475414276123047e+00) (0, -3.68544459342956542969e-01) (1, 3.22382831573486328125e+00) (0, -1.31253272294998168945e-01) (1, -2.98167252540588378906e+00) (0, 9.44925621151924133301e-02) (1, 6.91277205944061279297e-01) (0, 7.16310858726501464844e-01) (1, 3.44885349273681640625e+00) (0, 8.97397100925445556641e-02) (1, 5.85562109947204589844e-01) (0, 6.15043735504150390625e+00) (1, 1.17796659469604492188e+00) (0, 8.66379165649414062500e+00) (1, 1.35465490818023681641e+00) (0, 6.16633355617523193359e-01) (1, 3.54045987129211425781e+00) (0, -5.89221231639385223389e-02) (1, -2.71183824539184570312e+00) (0, -7.43709802627563476562e-02) (1, 2.48595070838928222656e+00) (0, 3.75027060508728027344e-01) (1, 1.98575758934020996094e+00) (0, 7.36154913902282714844e-01) (1, 3.21284890174865722656e+00) (0, -1.24966152012348175049e-01) (1, -2.88949012756347656250e+00) (0, 1.05677498504519462585e-02) (1, -1.59304499626159667969e+00) (0, -7.85311311483383178711e-02) (1, 2.60993123054504394531e+00) (0, 3.62781584262847900391e-01) (1, 2.51012134552001953125e+00) (0, 1.73351094126701354980e-02) (1, 6.05840921401977539062e-01) (0, 7.50030934810638427734e-01) (1, 3.37070822715759277344e+00) (0, 8.66100025177001953125e+00) (1, 1.30846476554870605469e+00) (0, 6.14932489395141601562e+00) (1, 1.10653138160705566406e+00) (0, 7.23422646522521972656e-01) (1, 3.35753083229064941406e+00) (0, -6.30288347601890563965e-02) (1, -2.72190904617309570312e+00) (0, 8.65292167663574218750e+00) (1, 1.33076119422912597656e+00) (0, -8.85923653841018676758e-02) (1, 2.65056562423706054688e+00) (0, 7.18468606472015380859e-01) (1, 3.41758608818054199219e+00) (0, 7.12496221065521240234e-01) (1, 3.48577713966369628906e+00) (0, 2.83316087722778320312e+00) (1, 1.22888064384460449219e+00) (0, 8.90347659587860107422e-02) (1, 6.22578561305999755859e-01) (0, -5.15350103378295898438e-02) (1, -2.68964791297912597656e+00) (0, -8.33575576543807983398e-02) (1, 2.85031437873840332031e+00) (0, 7.15157985687255859375e-01) (1, 3.47551560401916503906e+00) (0, 6.97968363761901855469e-01) (1, 3.25690627098083496094e+00) (0, -3.48035320639610290527e-02) (1, 2.03120279312133789062e+00) (0, 1.29783637821674346924e-02) (1, -1.69548356533050537109e+00) (0, 1.26047074794769287109e-01) (1, -1.79769694805145263672e+00) (0, 8.64061260223388671875e+00) (1, 1.21888709068298339844e+00) (0, -6.81093037128448486328e-02) (1, -2.88167381286621093750e+00) (0, -1.99069008231163024902e-02) (1, 1.83530068397521972656e+00) (0, -7.32698440551757812500e-02) (1, -2.63368868827819824219e+00) (0, -1.20818354189395904541e-01) (1, -3.07023286819458007812e+00) (0, 7.06846356391906738281e-01) (1, 3.51981902122497558594e+00) (0, -3.46441082656383514404e-02) (1, 2.05592250823974609375e+00) (0, -4.88981939852237701416e-02) (1, -2.69379830360412597656e+00) (0, 6.15231275558471679688e-01) (1, 3.57544350624084472656e+00) (0, 7.29429364204406738281e-01) (1, 3.29391646385192871094e+00) (0, 9.49988588690757751465e-02) (1, 4.68323349952697753906e-01) (0, -4.08450746908783912659e-03) (1, 6.77451431751251220703e-01) (0, 7.23525941371917724609e-01) (1, 3.36400628089904785156e+00) (0, 1.03527128696441650391e-01) (1, -4.92505133152008056641e-01) (0, -2.20465920865535736084e-02) (1, 2.03711533546447753906e+00) (0, 7.39019870758056640625e-01) (1, 3.40958213806152343750e+00) (0, 1.13721666857600212097e-02) (1, -1.80185580253601074219e+00) (0, 8.64736175537109375000e+00) (1, 1.21466720104217529297e+00) (0, 1.93344638682901859283e-03) (1, 1.23262953758239746094e+00) (0, -6.69416487216949462891e-02) (1, -2.75452423095703125000e+00) (0, -2.38826721906661987305e-01) (1, 6.06488049030303955078e-01) (0, 6.19409739971160888672e-01) (1, 3.55089735984802246094e+00) (0, 1.06802834197878837585e-02) (1, -1.56746840476989746094e+00) (0, 5.86377263069152832031e-01) (1, 3.58788728713989257812e+00) (0, -7.59388580918312072754e-02) (1, -2.81754803657531738281e+00) (0, 9.75227728486061096191e-03) (1, -1.82145285606384277344e+00) (0, 6.15861272811889648438e+00) (1, 1.22476422786712646484e+00) (0, 3.68447333574295043945e-01) (1, 2.24790573120117187500e+00) (0, 7.47211992740631103516e-01) (1, 3.13044261932373046875e+00) (0, 8.65616321563720703125e+00) (1, 1.27900731563568115234e+00) (0, 2.84111928939819335938e+00) (1, 1.25858533382415771484e+00) (0, 9.67864133417606353760e-03) (1, -1.77220535278320312500e+00) (0, 8.66543865203857421875e+00) (1, 1.32527256011962890625e+00) (0, 4.56880312412977218628e-03) (1, 4.27083313465118408203e-01) (0, 8.64940738677978515625e+00) (1, 1.26173257827758789062e+00) (0, 2.83930349349975585938e+00) (1, 1.32886052131652832031e+00) (0, 6.86537027359008789062e-01) (1, 3.51205801963806152344e+00) (0, 6.12621498107910156250e+00) (1, 1.04604637622833251953e+00) (0, 7.25643515586853027344e-01) (1, 3.34663295745849609375e+00) (0, -1.28392279148101806641e-01) (1, -3.00093913078308105469e+00) (0, 7.05327928066253662109e-01) (1, 3.42066121101379394531e+00) (0, 1.85317341238260269165e-02) (1, 1.13453125953674316406e+00) (0, 7.16346025466918945312e-01) (1, 3.44567298889160156250e+00) (0, -7.18958675861358642578e-02) (1, -2.67063283920288085938e+00) (0, -2.59848758578300476074e-02) (1, 1.50627040863037109375e+00) (0, 7.58960902690887451172e-01) (1, 3.33149385452270507812e+00) (0, -1.20243825018405914307e-01) (1, -3.06700706481933593750e+00) (0, 3.58484655618667602539e-01) (1, 2.74627757072448730469e+00) (0, 6.11341333389282226562e+00) (1, 9.25828754901885986328e-01) (0, 3.73975303955376148224e-03) (1, 9.22491014003753662109e-01) (0, 7.88029611110687255859e-01) (1, 4.00865793228149414062e+00) (0, 1.06102772057056427002e-01) (1, -3.93553555011749267578e-01) (0, -1.94249432533979415894e-02) (1, 2.17767119407653808594e+00) (0, -1.69500902295112609863e-01) (1, 3.70713829994201660156e+00) (0, 6.15441560745239257812e+00) (1, 1.15099585056304931641e+00) (0, 7.63411045074462890625e-01) (1, 3.89239764213562011719e+00) (0, 9.09055888652801513672e-01) (1, 4.50901699066162109375e+00) (0, -4.83120642602443695068e-02) (1, -2.74077582359313964844e+00) (0, 7.08846654742956161499e-03) (1, 4.58978742361068725586e-01) (0, 4.13236528402194380760e-04) (1, -2.62590241432189941406e+00) (0, 2.82930421829223632812e+00) (1, 1.19664347171783447266e+00) (0, 8.64513206481933593750e+00) (1, 1.46336770057678222656e+00) (0, 8.64935111999511718750e+00) (1, 1.26200151443481445312e+00) (0, -2.96110808849334716797e-02) (1, 1.79149079322814941406e+00) (0, 6.14538955688476562500e+00) (1, 1.10899138450622558594e+00) (0, 3.61443489789962768555e-01) (1, 2.80545234680175781250e+00) (0, -3.94950583577156066895e-02) (1, -2.51782178878784179688e+00) (0, 2.77777373790740966797e-01) (1, 3.15271162986755371094e+00) (0, -4.95541691780090332031e-02) (1, -2.66658067703247070312e+00) (0, 8.87351669371128082275e-03) (1, 6.88357591629028320312e-01) (0, 7.21057713031768798828e-01) (1, 3.35966682434082031250e+00) (0, 8.63118362426757812500e+00) (1, 1.19529926776885986328e+00) (0, 9.42025110125541687012e-02) (1, 4.58546429872512817383e-01) (0, 8.66079711914062500000e+00) (1, 1.24854671955108642578e+00) (0, 3.70326906442642211914e-01) (1, 1.97974550724029541016e+00) (0, 7.25091159343719482422e-01) (1, 3.36350321769714355469e+00) (0, 6.67952716350555419922e-01) (1, 3.51984524726867675781e+00) (0, 6.51683688163757324219e-01) (1, 3.05005860328674316406e+00) (0, -5.25634773075580596924e-02) (1, -2.59966778755187988281e+00) (0, -1.76735028624534606934e-01) (1, 3.09206032752990722656e+00) (0, 6.97526216506958007812e-01) (1, 3.58447909355163574219e+00) (0, 7.07471907138824462891e-01) (1, 3.52736306190490722656e+00) (0, 1.47537179291248321533e-02) (1, 4.58498328924179077148e-01) (0, 5.69347858428955078125e-01) (1, 3.60714626312255859375e+00) (0, -3.39948534965515136719e-02) (1, 2.10975408554077148438e+00) (0, -5.78929819166660308838e-02) (1, -2.60055661201477050781e+00) (0, 7.98706471920013427734e-01) (1, 3.88458752632141113281e+00) (0, 8.61959838867187500000e+00) (1, 1.18665254116058349609e+00) (0, -1.30327224731445312500e-01) (1, -2.98525667190551757812e+00) (0, 6.92662715911865234375e-01) (1, 3.47589039802551269531e+00) (0, 9.87024512141942977905e-03) (1, -1.77910494804382324219e+00) (0, -2.26473584771156311035e-01) (1, 3.65936088562011718750e+00) (0, 6.14310169219970703125e+00) (1, 1.11338651180267333984e+00) (0, -7.35468417406082153320e-02) (1, -2.64418005943298339844e+00) (0, 4.49717313051223754883e-01) (1, 3.61241674423217773438e+00) (0, -1.32444396615028381348e-01) (1, -2.96457433700561523438e+00) (0, 1.01304478943347930908e-01) (1, -3.79564970731735229492e-01) (0, 8.64798736572265625000e+00) (1, 1.28032588958740234375e+00) (0, 7.45164811611175537109e-01) (1, 3.40558791160583496094e+00) (0, 8.65133857727050781250e+00) (1, 1.30220401287078857422e+00) (0, 6.14154338836669921875e+00) (1, 1.16193544864654541016e+00) (0, 9.10081505775451660156e-01) (1, 3.17753863334655761719e+00) (0, 6.15388202667236328125e+00) (1, 1.19719588756561279297e+00) (0, 1.26675248611718416214e-03) (1, 6.84382855892181396484e-01) (0, 9.11974430084228515625e-01) (1, 4.50514459609985351562e+00) (0, -1.01002968847751617432e-01) (1, -2.84566307067871093750e+00) (0, 3.50924730300903320312e-01) (1, 2.23154735565185546875e+00) (0, 8.65334510803222656250e+00) (1, 1.25833940505981445312e+00) (0, 9.03412640094757080078e-01) (1, 4.54775142669677734375e+00) (0, 1.03928176686167716980e-02) (1, -7.26438701152801513672e-01) (0, 7.27494776248931884766e-01) (1, 3.32431817054748535156e+00) (0, -4.94003966450691223145e-02) (1, -2.71610212326049804688e+00) (0, 9.81655903160572052002e-03) (1, -1.77566313743591308594e+00) (0, 1.01465675979852676392e-02) (1, -1.76416945457458496094e+00) (0, -3.46147455275058746338e-02) (1, 2.04542493820190429688e+00) (0, -1.12180979922413825989e-02) (1, 1.57961058616638183594e+00) (0, 3.56259852647781372070e-01) (1, -2.12770141661167144775e-02) (0, 2.42110015824437141418e-03) (1, 6.43926441669464111328e-01) (0, 8.99354636669158935547e-01) (1, 4.58297729492187500000e+00) (0, 2.83696222305297851562e+00) (1, 1.31316924095153808594e+00) (0, 2.84222316741943359375e+00) (1, 1.21921241283416748047e+00) (0, -7.34033063054084777832e-02) (1, -2.64635944366455078125e+00) (0, 7.14308679103851318359e-01) (1, 3.48522973060607910156e+00) (0, 4.61418852210044860840e-02) (1, 6.21417880058288574219e-01) (0, -1.99087858200073242188e-02) (1, -2.63588595390319824219e+00) (0, 1.08913267031311988831e-02) (1, -1.60160589218139648438e+00) (0, 7.06389427185058593750e-01) (1, 3.45932316780090332031e+00) (0, 7.11057543754577636719e-01) (1, 3.44409942626953125000e+00) (0, 6.14459514617919921875e+00) (1, 1.08070695400238037109e+00) (0, 2.83473825454711914062e+00) (1, 1.31367266178131103516e+00) (0, 3.75019043684005737305e-01) (1, 1.98996686935424804688e+00) (0, 7.30065584182739257812e-01) (1, 3.30277085304260253906e+00) (0, 8.64039325714111328125e+00) (1, 1.23892784118652343750e+00) (0, -7.41507112979888916016e-02) (1, -2.62841820716857910156e+00) (0, 8.74128658324480056763e-03) (1, 4.84296500682830810547e-01) (0, 4.10888642072677612305e-02) (1, -1.84841513633728027344e+00) (0, 8.64271545410156250000e+00) (1, 1.24618101119995117188e+00) (0, 1.24946339055895805359e-02) (1, 5.57659864425659179688e-01) (0, 2.84448766708374023438e+00) (1, 1.31149673461914062500e+00) (0, -7.89345130324363708496e-02) (1, 2.64186167716979980469e+00) (0, 2.18261242844164371490e-03) (1, 4.11005437374114990234e-01) (0, 6.15105676651000976562e+00) (1, 1.17359590530395507812e+00) (0, 7.38330841064453125000e-01) (1, 3.21497106552124023438e+00) (0, -3.21194082498550415039e-02) (1, 1.89661657810211181641e+00) (0, -7.18186944723129272461e-02) (1, -2.62273144721984863281e+00) (0, -2.19709090888500213623e-02) (1, 1.96462368965148925781e+00) (0, 8.63931465148925781250e+00) (1, 1.20170819759368896484e+00) (0, -7.72736966609954833984e-03) (1, 1.23505675792694091797e+00) (0, 7.65915785450488328934e-04) (1, 8.60331535339355468750e-01) (0, -1.33730202913284301758e-01) (1, -2.96427440643310546875e+00) (0, 6.14817619323730468750e+00) (1, 1.07987737655639648438e+00) (0, 7.29178130626678466797e-01) (1, 3.35214877128601074219e+00) (0, -3.35815623402595520020e-02) (1, 2.00745320320129394531e+00) (0, -2.64141503721475601196e-02) (1, 1.52817916870117187500e+00) (0, -9.90813449025154113770e-02) (1, -2.84416484832763671875e+00) (0, 6.11722040176391601562e+00) (1, 9.44850862026214599609e-01) (0, 1.14053860306739807129e-02) (1, -1.81325912475585937500e+00) (0, 6.90016090869903564453e-01) (1, 3.33674335479736328125e+00) (0, 1.03982854634523391724e-02) (1, -1.88012361526489257812e+00) (0, -9.89439617842435836792e-03) (1, 1.22706687450408935547e+00) (0, 9.47607085108757019043e-02) (1, 4.34501409530639648438e-01) (0, 8.92003953456878662109e-01) (1, 3.25635981559753417969e+00) (0, -1.81790366768836975098e-01) (1, 6.16805315017700195312e+00) (0, -1.14610932767391204834e-01) (1, -2.94882941246032714844e+00) (0, -2.28489991277456283569e-02) (1, 2.05278563499450683594e+00) (0, -1.58961936831474304199e-01) (1, 3.70719766616821289062e+00) (0, 6.15199708938598632812e+00) (1, 1.19611966609954833984e+00) (0, 8.65734767913818359375e+00) (1, 1.34456324577331542969e+00) (0, -1.68325453996658325195e-01) (1, 3.73443841934204101562e+00) (0, -2.07079644314944744110e-03) (1, 2.25870656967163085938e+00) (0, 8.66048336029052734375e+00) (1, 1.31634128093719482422e+00) (0, 7.07704067230224609375e-01) (1, 3.51477241516113281250e+00) (0, 9.48149487376213073730e-02) (1, 4.85199868679046630859e-01) (0, 6.97162866592407226562e-01) (1, 3.50177526473999023438e+00) (0, 7.15596020221710205078e-01) (1, 3.43998479843139648438e+00) (0, -7.19708427786827087402e-02) (1, -2.78414201736450195312e+00) (0, 1.72497574239969253540e-02) (1, 7.58945584297180175781e-01) (0, -1.33615702390670776367e-01) (1, -2.97361397743225097656e+00) (0, 7.37999498844146728516e-01) (1, 3.21758055686950683594e+00) (0, 1.12872840836644172668e-02) (1, -1.80073273181915283203e+00) (0, 6.13031005859375000000e+00) (1, 1.12072896957397460938e+00) (0, 1.40663059428334236145e-02) (1, 4.36759382486343383789e-01) (0, -4.89955209195613861084e-02) (1, -2.67639565467834472656e+00) (0, 1.23577415943145751953e-02) (1, -1.68524384498596191406e+00) (0, 5.87708890438079833984e-01) (1, 3.62107563018798828125e+00) (0, -1.63971539586782455444e-02) (1, -2.53197598457336425781e+00) (0, 8.65779209136962890625e+00) (1, 1.25538635253906250000e+00) (0, 2.50601600855588912964e-02) (1, 5.24388849735260009766e-01) (0, 2.08474725484848022461e-01) (1, -1.48162925243377685547e+00) (0, 4.75676637142896652222e-03) (1, 5.93678355216979980469e-01) (0, -1.29784584045410156250e-01) (1, -2.98676228523254394531e+00) (0, 7.09345936775207519531e-01) (1, 3.51100468635559082031e+00) (0, 8.07588398456573486328e-01) (1, 3.70430850982666015625e+00) (0, 2.84442234039306640625e+00) (1, 1.25888240337371826172e+00) (0, 7.17065989971160888672e-01) (1, 3.44074630737304687500e+00) (0, 5.84342420101165771484e-01) (1, 3.64429330825805664062e+00) (0, 8.65530395507812500000e+00) (1, 1.29915356636047363281e+00) (0, -6.64370283484458923340e-02) (1, -2.77332997322082519531e+00) (0, 7.88261368870735168457e-02) (1, 5.23624122142791748047e-01) (0, 7.15772882103919982910e-02) (1, -1.56947362422943115234e+00) (0, 8.63828563690185546875e+00) (1, 1.19098615646362304688e+00) (0, 8.26548412442207336426e-03) (1, 8.48592758178710937500e-01) (0, 7.32175111770629882812e-01) (1, 3.28831863403320312500e+00) (0, -5.37101589143276214600e-02) (1, -2.65314149856567382812e+00) (0, 9.12700667977333068848e-02) (1, 4.18278098106384277344e-01) (0, 3.68302077054977416992e-01) (1, 2.24762058258056640625e+00) (0, 8.34049880504608154297e-01) (1, 3.23145461082458496094e+00) (0, 8.50691571831703186035e-02) (1, 7.67249643802642822266e-01) (0, 2.83914184570312500000e+00) (1, 1.33017301559448242188e+00) (0, -7.42322206497192382812e-02) (1, -2.70641922950744628906e+00) (0, 8.62878990173339843750e+00) (1, 1.16181826591491699219e+00) (0, 5.90052187442779541016e-01) (1, 3.71088433265686035156e+00) (0, -8.15750434994697570801e-02) (1, -2.83511924743652343750e+00) (0, 8.63351631164550781250e+00) (1, 1.19785571098327636719e+00) (0, 8.64037609100341796875e+00) (1, 1.18923437595367431641e+00) (0, 1.54029289260506629944e-02) (1, 1.26923906803131103516e+00) (0, -6.54449537396430969238e-02) (1, -2.61690735816955566406e+00) (0, 7.23354697227478027344e-01) (1, 3.40128397941589355469e+00) (0, -1.38935837894678115845e-02) (1, 1.44311046600341796875e+00) (0, 6.95916712284088134766e-01) (1, 3.60779166221618652344e+00) (0, 7.99126386642456054688e-01) (1, 3.88472342491149902344e+00) (0, 7.09864854812622070312e-01) (1, 3.49470829963684082031e+00) (0, -9.35741439461708068848e-02) (1, -2.82052016258239746094e+00) (0, 8.65248394012451171875e+00) (1, 1.46826457977294921875e+00) (0, -5.72555661201477050781e-02) (1, -2.59119629859924316406e+00) (0, 2.68394500017166137695e-01) (1, 2.58357453346252441406e+00) (0, -2.77241040021181106567e-03) (1, -2.60811352729797363281e+00) (0, 8.63188457489013671875e+00) (1, 1.23625624179840087891e+00) (0, 6.14544248580932617188e+00) (1, 1.16218984127044677734e+00) (0, 7.27891445159912109375e-01) (1, 3.34696936607360839844e+00) (0, 6.15523910522460937500e+00) (1, 1.21345615386962890625e+00) (0, 8.62984657287597656250e+00) (1, 1.14044535160064697266e+00) (0, -1.63093712180852890015e-02) (1, 8.65693151950836181641e-01) (0, 8.64773750305175781250e+00) (1, 1.49726009368896484375e+00) (0, 7.38773643970489501953e-01) (1, 3.21342158317565917969e+00) (0, -5.00615511555224657059e-04) (1, 5.39177477359771728516e-01) (0, -1.22772704344242811203e-03) (1, 9.58832144737243652344e-01) (0, -7.47062861919403076172e-02) (1, -2.69314122200012207031e+00) (0, 3.68902772665023803711e-01) (1, 2.15850734710693359375e+00) (0, 7.47361600399017333984e-01) (1, 3.13389945030212402344e+00) (0, -7.10825547575950622559e-02) (1, -2.78585505485534667969e+00) (0, 1.60083565860986709595e-02) (1, 5.70874214172363281250e-01) (0, 2.84239578247070312500e+00) (1, 1.22534728050231933594e+00) (0, 7.37591743469238281250e-01) (1, 3.26481413841247558594e+00) (0, 9.10557713359594345093e-03) (1, 6.35667026042938232422e-01) (0, -8.54203756898641586304e-03) (1, 5.49086928367614746094e-01) (0, 9.29037388414144515991e-03) (1, -1.78189218044281005859e+00) (0, -3.19362394511699676514e-02) (1, 1.87288868427276611328e+00) (0, -6.88417777419090270996e-02) (1, -2.78821134567260742188e+00) (0, 9.93599835783243179321e-03) (1, -1.77712416648864746094e+00) (0, 9.73019935190677642822e-03) (1, -1.82683110237121582031e+00) (0, 2.83240842819213867188e+00) (1, 1.30984532833099365234e+00) (0, -2.16685071587562561035e-01) (1, 3.34352159500122070312e+00) (0, -2.40884974598884582520e-01) (1, 6.52273833751678466797e-01) (0, 5.36197721958160400391e-01) (1, 3.15586256980895996094e+00) (0, 1.36423557996749877930e-02) (1, 7.41554319858551025391e-01) (0, 6.13251399993896484375e+00) (1, 1.13578331470489501953e+00) (0, 8.95683646202087402344e-01) (1, 3.22741246223449707031e+00) (0, -1.40977837145328521729e-02) (1, 1.46332597732543945312e+00) (0, -8.57151597738265991211e-02) (1, 2.62957787513732910156e+00) (0, 6.03605508804321289062e-01) (1, 3.64489507675170898438e+00) (0, -2.29865878820419311523e-01) (1, 3.84065246582031250000e+00) (0, -1.84016395360231399536e-02) (1, 1.76746559143066406250e+00) (0, 7.58899152278900146484e-01) (1, 3.31282401084899902344e+00) (0, 6.12371253967285156250e+00) (1, 1.05517792701721191406e+00) (0, -5.39847165346145629883e-02) (1, -2.64069533348083496094e+00) (0, 6.12383127212524414062e+00) (1, 1.09653162956237792969e+00) (0, 6.12893390655517578125e+00) (1, 1.10631906986236572266e+00) (0, 1.03453986346721649170e-01) (1, -3.56715887784957885742e-01) (0, 8.53370968252420425415e-03) (1, -2.86002588272094726562e+00) (0, 8.62467384338378906250e+00) (1, 1.22880601882934570312e+00) (0, 7.00902044773101806641e-01) (1, 3.55783414840698242188e+00) (0, -2.48002395033836364746e-01) (1, 6.10414326190948486328e-01) (0, -2.44975965470075607300e-02) (1, 1.43650484085083007812e+00) (0, 6.14169073104858398438e+00) (1, 1.08636724948883056641e+00) (0, -2.92439735494554042816e-03) (1, 1.25082850456237792969e+00) (0, 6.07116460800170898438e-01) (1, 3.60762834548950195312e+00) (0, 7.25850284099578857422e-01) (1, 3.30882978439331054688e+00) (0, 8.64037322998046875000e+00) (1, 1.22703945636749267578e+00) (0, 9.04662787914276123047e-01) (1, 4.52344989776611328125e+00) (0, 1.69228622689843177795e-03) (1, 4.44201469421386718750e-01) (0, 6.26585483551025390625e-01) (1, 3.47953391075134277344e+00) (0, 5.86478114128112792969e-01) (1, 3.65568399429321289062e+00) (0, -7.55333304405212402344e-02) (1, -2.70991349220275878906e+00) (0, 4.23778444528579711914e-02) (1, 1.32087087631225585938e+00) (0, -2.87246378138661384583e-03) (1, -2.61956977844238281250e+00) (0, 7.01544821262359619141e-01) (1, 3.30620503425598144531e+00) (0, 4.43003885447978973389e-02) (1, -4.53328847885131835938e-01) (0, -1.58550143241882324219e-02) (1, 7.13951945304870605469e-01) (0, 6.93385720252990722656e-01) (1, 3.29744815826416015625e+00) (0, 8.63360786437988281250e+00) (1, 1.25559639930725097656e+00) (0, 6.44259274005889892578e-01) (1, 3.77436828613281250000e+00) (0, -4.87119285389780998230e-03) (1, 1.21100246906280517578e+00) (0, 6.14955377578735351562e+00) (1, 1.17771887779235839844e+00) (0, -5.10741099715232849121e-02) (1, -2.63918042182922363281e+00) (0, 7.34003603458404541016e-01) (1, 3.26510858535766601562e+00) (0, 8.65458488464355468750e+00) (1, 1.25696122646331787109e+00) (0, -5.29269613325595855713e-02) (1, -2.59256768226623535156e+00) (0, 6.14036417007446289062e+00) (1, 1.11738991737365722656e+00) (0, 1.21065251529216766357e-01) (1, 8.40565264225006103516e-02) (0, 9.29191231727600097656e-01) (1, 1.72795057296752929688e+00) (0, -9.97875165194272994995e-03) (1, 6.98800683021545410156e-01) (0, 1.16605311632156372070e-03) (1, 4.40423369407653808594e-01) (0, -5.78376278281211853027e-03) (1, -2.48886108398437500000e+00) (0, 8.64956951141357421875e+00) (1, 1.46953737735748291016e+00) (0, 6.14009046554565429688e+00) (1, 1.17246723175048828125e+00) (0, 5.85414588451385498047e-01) (1, 3.63884019851684570312e+00) (0, 3.83981704711914062500e-01) (1, 1.99393880367279052734e+00) (0, 8.62720775604248046875e+00) (1, 1.18498146533966064453e+00) (0, 8.44260826706886291504e-02) (1, -1.56332230567932128906e+00) (0, -5.16653209924697875977e-02) (1, -2.70524835586547851562e+00) (0, 8.07740151882171630859e-01) (1, 3.70126390457153320312e+00) (0, 4.14003543555736541748e-02) (1, -1.84416759014129638672e+00) (0, -1.03093208745121955872e-02) (1, 1.88718807697296142578e+00) (0, 1.15229666233062744141e-01) (1, 3.16270202398300170898e-01) (0, 8.62408733367919921875e+00) (1, 1.21067011356353759766e+00) (0, -3.00812106579542160034e-02) (1, 1.77227950096130371094e+00) (0, 7.00486838817596435547e-01) (1, 3.45572352409362792969e+00) (0, 8.65799999237060546875e+00) (1, 1.50202786922454833984e+00) (0, 7.48684406280517578125e-01) (1, 3.39265227317810058594e+00) (0, 4.10716310143470764160e-02) (1, -1.81490039825439453125e+00) (0, -1.64688713848590850830e-02) (1, 1.78841018676757812500e+00) (0, -1.34029030799865722656e-01) (1, -2.96829366683959960938e+00) (0, 1.56812164932489395142e-02) (1, 4.56275194883346557617e-01) (0, 6.15624952316284179688e+00) (1, 1.20933628082275390625e+00) (0, 8.92303586006164550781e-01) (1, 3.27364873886108398438e+00) (0, -2.80241873115301132202e-02) (1, -2.67020368576049804688e+00) (0, 2.83606004714965820312e+00) (1, 1.25745081901550292969e+00) (0, 4.99527249485254287720e-03) (1, 7.32360363006591796875e-01) (0, 7.04558014869689941406e-01) (1, 3.49463057518005371094e+00) (0, 6.13945531845092773438e+00) (1, 1.05372822284698486328e+00) (0, 7.06566631793975830078e-01) (1, 3.51988625526428222656e+00) (0, -3.51460389792919158936e-02) (1, -2.74126744270324707031e+00) (0, 8.64219474792480468750e+00) (1, 1.19456636905670166016e+00) (0, 8.66436481475830078125e+00) (1, 1.55374991893768310547e+00) (0, -2.36585751175880432129e-01) (1, 3.71011948585510253906e+00) (0, 5.86802959442138671875e-01) (1, 3.60896539688110351562e+00) (0, 9.97252576053142547607e-03) (1, -1.78804540634155273438e+00) (0, 8.65492534637451171875e+00) (1, 1.27232003211975097656e+00) (0, -9.58370603621006011963e-03) (1, 7.29133009910583496094e-01) (0, 6.91661477088928222656e-01) (1, 3.47517013549804687500e+00) (0, 6.13225078582763671875e+00) (1, 1.11317527294158935547e+00) (0, 1.09459809958934783936e-01) (1, -5.92221856117248535156e-01) (0, 6.15361166000366210938e+00) (1, 1.19401264190673828125e+00) (0, 3.50453227758407592773e-01) (1, 2.49156689643859863281e+00) (0, 2.39857621490955352783e-02) (1, 4.07376497983932495117e-01) (0, -5.80769591033458709717e-02) (1, -2.72416949272155761719e+00) (0, 1.77588500082492828369e-02) (1, 6.20534837245941162109e-01) (0, 2.83585882186889648438e+00) (1, 1.24555611610412597656e+00) (0, 9.65203065425157546997e-03) (1, 5.00230371952056884766e-01) (0, 7.04517774283885955811e-03) (1, 1.96709358692169189453e+00) (0, 1.46431758999824523926e-01) (1, -1.71662402153015136719e+00) (0, -1.50223493576049804688e-01) (1, 3.72747182846069335938e+00) (0, 3.83425354957580566406e-01) (1, 1.99887895584106445312e+00) (0, 7.64164388179779052734e-01) (1, 3.29129195213317871094e+00) (0, -9.42295184358954429626e-04) (1, 9.50548410415649414062e-01) (0, 1.06915803626179695129e-02) (1, -1.59363102912902832031e+00) (0, 5.86987316608428955078e-01) (1, 3.63812994956970214844e+00) (0, 6.11845254898071289062e+00) (1, 9.13312196731567382812e-01) (0, -6.71035498380661010742e-02) (1, -2.73593831062316894531e+00) (0, 7.50537157058715820312e-01) (1, 3.09673404693603515625e+00) (0, 1.42537523061037063599e-02) (1, 5.65918743610382080078e-01) (0, 6.88064455986022949219e-01) (1, 3.52111291885375976562e+00) (0, -6.73283934593200683594e-02) (1, -2.60819482803344726562e+00) (0, 2.83661460876464843750e+00) (1, 1.23326933383941650391e+00) (0, 6.14754009246826171875e+00) (1, 1.15910148620605468750e+00) (0, -1.75353124737739562988e-01) (1, 3.09879064559936523438e+00) (0, 7.08828985691070556641e-01) (1, 3.38380312919616699219e+00) (0, -1.33728235960006713867e-01) (1, -2.97023725509643554688e+00) (0, 6.14023303985595703125e+00) (1, 1.12061369419097900391e+00) (0, 6.11173152923583984375e+00) (1, 9.32778239250183105469e-01) (0, 6.02074682712554931641e-01) (1, 3.63843107223510742188e+00) (0, 7.39627301692962646484e-01) (1, 3.42926979064941406250e+00) (0, -7.30057209730148315430e-02) (1, -2.82728481292724609375e+00) (0, 2.83363866806030273438e+00) (1, 1.22431719303131103516e+00) (0, 7.17979252338409423828e-01) (1, 3.43655753135681152344e+00) (0, 6.71554505825042724609e-02) (1, -1.56329512596130371094e+00) (0, 7.98242464661598205566e-02) (1, 7.02361106872558593750e-01) (0, -3.21071147918701171875e-02) (1, 1.91014051437377929688e+00) (0, -2.43864674121141433716e-02) (1, 1.42890703678131103516e+00) (0, -5.40665276348590850830e-02) (1, -2.63549494743347167969e+00) (0, 5.27227409183979034424e-02) (1, -1.59158277511596679688e+00) (0, 8.63961219787597656250e+00) (1, 1.46386241912841796875e+00) (0, 2.83931493759155273438e+00) (1, 1.25508868694305419922e+00) (0, 7.33829557895660400391e-01) (1, 3.27558732032775878906e+00) (0, -2.95906998217105865479e-02) (1, -2.66525411605834960938e+00) (0, 6.13767242431640625000e+00) (1, 1.12093210220336914062e+00) (0, 2.83008575439453125000e+00) (1, 1.18092381954193115234e+00) (0, 1.18084875866770744324e-02) (1, -1.81679296493530273438e+00) (0, 8.28281510621309280396e-03) (1, 4.43485409021377563477e-01) (0, 8.66076564788818359375e+00) (1, 1.32839322090148925781e+00) (0, 2.84537649154663085938e+00) (1, 1.31256699562072753906e+00) (0, -1.26823084428906440735e-02) (1, 2.21519708633422851562e+00) (0, 7.59681105613708496094e-01) (1, 3.91998124122619628906e+00) (0, 1.24468922615051269531e-01) (1, -3.70009467005729675293e-02) (0, 1.77584327757358551025e-02) (1, 6.24586641788482666016e-01) (0, 1.06457006186246871948e-02) (1, -1.77965009212493896484e+00) (0, -4.20824959874153137207e-02) (1, -2.72909617424011230469e+00) (0, 6.12799358367919921875e+00) (1, 1.07215392589569091797e+00) (0, -5.29990270733833312988e-02) (1, -2.68025064468383789062e+00) (0, 1.02321254089474678040e-02) (1, -1.74985134601593017578e+00) (0, 8.63001728057861328125e+00) (1, 1.15045428276062011719e+00) (0, 1.04125998914241790771e-02) (1, -1.78078722953796386719e+00) (0, -3.15395221114158630371e-02) (1, 1.83557820320129394531e+00) (0, 7.27504789829254150391e-01) (1, 3.33682131767272949219e+00) (0, 7.84683600068092346191e-03) (1, 7.67057478427886962891e-01) (0, 8.45426842570304870605e-02) (1, -1.56658530235290527344e+00) (0, 9.12573784589767456055e-02) (1, 7.71592557430267333984e-01) (0, 1.72428172081708908081e-02) (1, 1.74849784374237060547e+00) (0, 2.84135770797729492188e+00) (1, 1.31293010711669921875e+00) (0, 7.56980776786804199219e-01) (1, 3.35645174980163574219e+00) (0, 9.12414908409118652344e-01) (1, 2.81661653518676757812e+00) (0, 8.01998749375343322754e-02) (1, 4.38918828964233398438e-01) (0, -1.27402022480964660645e-01) (1, -3.04381442070007324219e+00) (0, 6.01649191230535507202e-03) (1, -2.67536234855651855469e+00) (0, 7.97659337520599365234e-01) (1, 3.89233255386352539062e+00) (0, -3.69459390640258789062e-02) (1, 2.19329977035522460938e+00) (0, 6.14264631271362304688e+00) (1, 1.11800634860992431641e+00) (0, 8.65246295928955078125e+00) (1, 1.22818851470947265625e+00) (0, 7.17790007591247558594e-01) (1, 3.42289519309997558594e+00) (0, 8.64148521423339843750e+00) (1, 1.22139358520507812500e+00) (0, 7.62124180793762207031e-01) (1, 3.31904244422912597656e+00) (0, 6.12726593017578125000e+00) (1, 1.07981812953948974609e+00) (0, -2.17231716960668563843e-02) (1, 2.01932191848754882812e+00) (0, 5.76742878183722496033e-03) (1, -2.69525790214538574219e+00) (0, 6.13849639892578125000e-01) (1, 3.54964828491210937500e+00) (0, 7.26116120815277099609e-01) (1, 3.36212110519409179688e+00) (0, 8.65557289123535156250e+00) (1, 1.29008114337921142578e+00) (0, 2.34668230405077338219e-04) (1, 7.43797779083251953125e-01) (0, 7.03273952007293701172e-01) (1, 3.54785799980163574219e+00) (0, -5.91982761397957801819e-03) (1, 1.87506818771362304688e+00) (0, 7.39213824272155761719e-01) (1, 3.21282005310058593750e+00) (0, 1.06160774827003479004e-01) (1, -7.92480647563934326172e-01) (0, -7.41855949163436889648e-02) (1, -2.72411346435546875000e+00) (0, 7.13437914848327636719e-01) (1, 3.47768592834472656250e+00) (0, 9.00748297572135925293e-02) (1, 5.31660616397857666016e-01) (0, 3.55934470891952514648e-01) (1, 3.03104162216186523438e+00) (0, 8.65816487930715084076e-04) (1, 1.26558029651641845703e+00) (0, -3.71479600667953491211e-01) (1, 3.19296669960021972656e+00) (0, 7.63888537883758544922e-01) (1, 3.32737636566162109375e+00) (0, 9.04675781726837158203e-01) (1, 4.54226922988891601562e+00) (0, 1.56104797497391700745e-03) (1, 6.56855940818786621094e-01) (0, -5.25887496769428253174e-02) (1, -2.62867569923400878906e+00) (0, 1.02006671950221061707e-02) (1, 3.98810029029846191406e-01) (0, 9.69513207674026489258e-02) (1, 6.45623385906219482422e-01) (0, -1.31613329052925109863e-01) (1, -2.99299168586730957031e+00) (0, 9.15511860512197017670e-04) (1, 5.37742435932159423828e-01) (0, 5.80149054527282714844e-01) (1, 3.55296802520751953125e+00) (0, 1.82241991162300109863e-01) (1, -1.65844559669494628906e+00) (0, 6.15157365798950195312e+00) (1, 1.17287409305572509766e+00) (0, 8.57222545892000198364e-03) (1, -2.81843829154968261719e+00) (0, -1.24876581132411956787e-01) (1, -3.03563809394836425781e+00) (0, -2.25296784192323684692e-02) (1, 2.49973201751708984375e+00) (0, 6.14304876327514648438e+00) (1, 1.12146139144897460938e+00) (0, -1.27969115972518920898e-01) (1, -3.02880263328552246094e+00) (0, 6.13526248931884765625e+00) (1, 1.11884772777557373047e+00) (0, 3.73649626970291137695e-01) (1, 2.06572127342224121094e+00) (0, 1.06544211506843566895e-01) (1, -5.28614401817321777344e-01) (0, 1.07531836256384849548e-02) (1, -1.81171095371246337891e+00) (0, 6.13210201263427734375e+00) (1, 1.07431054115295410156e+00) (0, 8.95511388778686523438e-01) (1, 3.21442270278930664062e+00) (0, -7.98138976097106933594e-02) (1, 3.67993164062500000000e+00) (0, 8.95174369215965270996e-02) (1, 6.01416051387786865234e-01) (0, 6.13528108596801757812e+00) (1, 1.08096468448638916016e+00) (0, 7.17320501804351806641e-01) (1, 3.43737387657165527344e+00) (0, -5.37575930356979370117e-02) (1, -2.63384819030761718750e+00) (0, -1.63500022608786821365e-03) (1, 2.20928049087524414062e+00) (0, 2.84453916549682617188e+00) (1, 1.27558898925781250000e+00) (0, -1.30847528576850891113e-01) (1, -3.00637340545654296875e+00) (0, 9.37263131141662597656e-01) (1, 4.39632797241210937500e+00) (0, 8.66350078582763671875e+00) (1, 1.50317311286926269531e+00) (0, -1.30844041705131530762e-01) (1, -3.00630450248718261719e+00) (0, 6.12956237792968750000e+00) (1, 1.11538791656494140625e+00) (0, 8.65088939666748046875e+00) (1, 1.29775762557983398438e+00) (0, 3.70477050542831420898e-01) (1, 2.17004299163818359375e+00) (0, 6.86347365379333496094e-01) (1, 3.51508617401123046875e+00) (0, 1.77176430821418762207e-01) (1, 2.29870700836181640625e+00) (0, 7.30096161365509033203e-01) (1, 3.31351232528686523438e+00) (0, -4.87340986728668212891e-02) (1, -2.73163056373596191406e+00) (0, 6.64538741111755371094e-01) (1, 3.73761963844299316406e+00) (0, -5.23635558784008026123e-03) (1, -2.53506422042846679688e+00) (0, 3.66907894611358642578e-01) (1, 2.44094848632812500000e+00) (0, 6.14582300186157226562e+00) (1, 1.14455974102020263672e+00) (0, 6.14587450027465820312e+00) (1, 1.09211301803588867188e+00) (0, 5.76117448508739471436e-03) (1, -2.67113590240478515625e+00) (0, 6.14396966993808746338e-02) (1, -1.60977566242218017578e+00) (0, -7.31284245848655700684e-02) (1, -2.62711071968078613281e+00) (0, 9.15319323539733886719e-01) (1, 4.48648166656494140625e+00) (0, 8.79250243306159973145e-02) (1, 6.66829586029052734375e-01) (0, 8.12584068626165390015e-04) (1, 5.19735753536224365234e-01) (0, 3.75032812356948852539e-01) (1, 2.12551617622375488281e+00) (0, 8.64648532867431640625e+00) (1, 1.21300566196441650391e+00) (0, -1.91807895898818969727e-02) (1, 1.88941061496734619141e+00) (0, 6.15571022033691406250e+00) (1, 1.17338597774505615234e+00) (0, 6.26513540744781494141e-01) (1, 3.47586178779602050781e+00) (0, 7.44623839855194091797e-01) (1, 3.41242742538452148438e+00) (0, 7.62882709503173828125e-01) (1, 3.34303355216979980469e+00) (0, 6.22820317745208740234e-01) (1, 3.55464887619018554688e+00) (0, 6.67427659034729003906e-01) (1, 3.51951789855957031250e+00) (0, 1.02510489523410797119e-01) (1, -3.20654779672622680664e-01) (0, -5.10679930448532104492e-02) (1, -2.66545319557189941406e+00) (0, -1.74752753227949142456e-02) (1, 1.71500849723815917969e+00) (0, 2.83565807342529296875e+00) (1, 1.28361272811889648438e+00) (0, 6.93921864032745361328e-01) (1, 3.30647516250610351562e+00) (0, -6.89491853117942810059e-02) (1, -2.80344390869140625000e+00) (0, 4.83839660882949829102e-02) (1, -1.48199582099914550781e+00) (0, 6.14790678024291992188e+00) (1, 1.18708932399749755859e+00) (0, 7.12604284286499023438e-01) (1, 3.35011315345764160156e+00) (0, 7.12031304836273193359e-01) (1, 3.36135697364807128906e+00) (0, 2.84425449371337890625e+00) (1, 1.29075264930725097656e+00) (0, -7.57945850491523742676e-02) (1, -2.82349038124084472656e+00) (0, 5.77762365341186523438e-01) (1, 3.60338735580444335938e+00) (0, 1.01256504654884338379e-01) (1, 5.09188413619995117188e-01) (0, 6.14711666107177734375e+00) (1, 1.15016663074493408203e+00) (0, -4.81103956699371337891e-02) (1, -2.70960259437561035156e+00) (0, 7.31589257717132568359e-01) (1, 3.28021049499511718750e+00) (0, 1.25345569103956222534e-02) (1, -1.70959687232971191406e+00) (0, -1.57130017876625061035e-01) (1, 3.71779060363769531250e+00) (0, 9.25016850233078002930e-02) (1, 5.57437896728515625000e-01) (0, -5.25508075952529907227e-02) (1, -2.65997958183288574219e+00) (0, -1.19537979364395141602e-01) (1, -2.91878914833068847656e+00) (0, 9.07049775123596191406e-01) (1, 4.54538249969482421875e+00) (0, 1.04773528873920440674e-01) (1, -7.66330063343048095703e-01) (0, 6.15615463256835937500e+00) (1, 1.20256698131561279297e+00) (0, 9.38807651400566101074e-02) (1, 6.33872389793395996094e-01) (0, 7.16515600681304931641e-01) (1, 3.44485902786254882812e+00) (0, 8.64949321746826171875e+00) (1, 1.26381599903106689453e+00) (0, 3.50954025983810424805e-01) (1, 1.97352278232574462891e+00) (0, 6.09733700752258300781e-01) (1, 3.08185052871704101562e+00) (0, 7.21061766147613525391e-01) (1, 3.40744543075561523438e+00) (0, 3.41229315381497144699e-04) (1, 5.35743117332458496094e-01) (0, 2.83231544494628906250e+00) (1, 1.23255157470703125000e+00) (0, 5.92830240726470947266e-01) (1, 3.68896794319152832031e+00) (0, 6.99093461036682128906e-01) (1, 3.51096868515014648438e+00) (0, 7.44261741638183593750e-01) (1, 3.11661005020141601562e+00) (0, 1.04279974475502967834e-02) (1, -1.57362306118011474609e+00) (0, 6.07059955596923828125e-01) (1, 3.61598873138427734375e+00) (0, 8.53987038135528564453e-03) (1, -2.81599879264831542969e+00) (0, 2.83751726150512695312e+00) (1, 1.28661417961120605469e+00) (0, 1.55359745025634765625e-01) (1, -1.69156110286712646484e+00) (0, 1.25310057774186134338e-03) (1, 5.10470211505889892578e-01) (0, 9.30723920464515686035e-02) (1, 5.06472289562225341797e-01) (0, -8.89842491596937179565e-03) (1, 1.93918371200561523438e+00) (0, -1.69620305299758911133e-01) (1, 3.75501179695129394531e+00) (0, -1.31780415773391723633e-01) (1, -2.98393774032592773438e+00) (0, 4.46713576093316078186e-03) (1, 5.96169829368591308594e-01) (0, 7.15088665485382080078e-01) (1, 3.44240665435791015625e+00) (0, -3.53249087929725646973e-02) (1, -2.73824000358581542969e+00) (0, 5.85042119026184082031e-01) (1, 3.66346359252929687500e+00) (0, 8.96318554878234863281e-02) (1, 5.74296295642852783203e-01) (0, 8.94888401031494140625e-01) (1, 3.21455788612365722656e+00) (0, -1.53450826182961463928e-02) (1, 2.16164731979370117188e+00) (0, 8.65987205505371093750e+00) (1, 1.32950842380523681641e+00) (0, 7.16172993183135986328e-01) (1, 3.45209717750549316406e+00) (0, 6.16257810592651367188e+00) (1, 1.18277859687805175781e+00) (0, 1.03156538680195808411e-02) (1, -1.69747185707092285156e+00) (0, -2.74618603289127349854e-02) (1, -2.71038031578063964844e+00) (0, 7.21503496170043945312e-01) (1, 3.41215610504150390625e+00) (0, -4.64788302779197692871e-02) (1, -2.65043759346008300781e+00) (0, 2.84164381027221679688e+00) (1, 1.20636224746704101562e+00) (0, -4.16499227285385131836e-01) (1, 3.15125846862792968750e+00) (0, 1.18173863738775253296e-02) (1, 4.92965012788772583008e-01) (0, 7.26460218429565429688e-01) (1, 3.28015780448913574219e+00) (0, 8.21145530790090560913e-03) (1, 7.37351357936859130859e-01) (0, -6.85591027140617370605e-02) (1, -2.76094698905944824219e+00) (0, 8.89951884746551513672e-02) (1, 5.87844014167785644531e-01) (0, 3.70043605566024780273e-01) (1, 2.35165786743164062500e+00) (0, 5.84875226020812988281e-01) (1, 3.63133525848388671875e+00) (0, 6.15912914276123046875e+00) (1, 1.21025443077087402344e+00) (0, 3.49208205938339233398e-01) (1, 2.80803370475769042969e+00) (0, -2.05694418400526046753e-02) (1, -2.58033394813537597656e+00) (0, 7.13958084583282470703e-01) (1, 3.38932991027832031250e+00) (0, 8.63617134094238281250e+00) (1, 1.22900450229644775391e+00) (0, -1.50274351239204406738e-01) (1, 3.70728659629821777344e+00) (0, 8.64860820770263671875e+00) (1, 1.30137515068054199219e+00) (0, 8.64269924163818359375e+00) (1, 1.24500799179077148438e+00) (0, 7.33017802238464355469e-01) (1, 3.26555633544921875000e+00) (0, 6.14732599258422851562e+00) (1, 1.12879371643066406250e+00) (0, 1.03503152728080749512e-01) (1, -3.73903065919876098633e-01) (0, 7.92897678911685943604e-03) (1, 4.95978653430938720703e-01) (0, -1.09426304697990417480e-02) (1, 1.97390878200531005859e+00) (0, 8.66283607482910156250e+00) (1, 1.54957199096679687500e+00) (0, 8.64727306365966796875e+00) (1, 1.45656037330627441406e+00) (0, 7.26529121398925781250e-01) (1, 3.34980392456054687500e+00) (0, -7.09703937172889709473e-02) (1, -2.65286993980407714844e+00) (0, 8.62949752807617187500e+00) (1, 1.14807677268981933594e+00) (0, 1.00374214351177215576e-01) (1, -5.61774551868438720703e-01) (0, 6.14704942703247070312e+00) (1, 1.17946946620941162109e+00) (0, 1.03437274694442749023e-01) (1, -3.47020745277404785156e-01) (0, -1.30120486021041870117e-01) (1, -2.99252986907958984375e+00) (0, 8.65708637237548828125e+00) (1, 1.29526281356811523438e+00) (0, 3.69589000940322875977e-01) (1, 2.27805876731872558594e+00) (0, 7.13603496551513671875e-01) (1, 3.34563279151916503906e+00) (0, 5.82020521163940429688e-01) (1, 3.52852845191955566406e+00) (0, 7.70536005496978759766e-01) (1, 3.24542546272277832031e+00) (0, 6.24688804149627685547e-01) (1, 3.47498106956481933594e+00) (0, -3.10269780457019805908e-02) (1, -2.71278262138366699219e+00) (0, 8.50616954267024993896e-04) (1, 5.48772394657135009766e-01) (0, -7.18308761715888977051e-02) (1, -2.60773301124572753906e+00) (0, 8.65233516693115234375e+00) (1, 1.29054176807403564453e+00) (0, 7.08449006080627441406e-01) (1, 3.82520675659179687500e+00) (0, 2.84083509445190429688e+00) (1, 1.24301826953887939453e+00) (0, -3.02979862317442893982e-03) (1, 6.57458782196044921875e-01) (0, 1.07014007866382598877e-01) (1, 3.52039128541946411133e-01) (0, 2.85029506683349609375e+00) (1, 1.22499370574951171875e+00) (0, -4.47205267846584320068e-02) (1, -2.72498202323913574219e+00) (0, -2.23164051771163940430e-01) (1, 3.65410327911376953125e+00) (0, -1.84498410671949386597e-02) (1, 1.77028763294219970703e+00) (0, 4.69706319272518157959e-02) (1, 4.62152451276779174805e-01) (0, -7.31158256530761718750e-02) (1, 2.47854685783386230469e+00) (0, 7.35628902912139892578e-01) (1, 3.28873872756958007812e+00) (0, -7.76279047131538391113e-02) (1, 2.59284377098083496094e+00) (0, -1.90863654017448425293e-01) (1, 5.74465847015380859375e+00) (0, -2.56454706192016601562e-01) (1, 5.23898422718048095703e-01) (0, 4.79834014549851417542e-03) (1, 4.17260438203811645508e-01) (0, 8.63302612304687500000e+00) (1, 1.17487597465515136719e+00) (0, 7.48946487903594970703e-01) (1, 3.16575312614440917969e+00) (0, 8.25057774782180786133e-02) (1, 5.15008091926574707031e-01) (0, -7.71811790764331817627e-03) (1, 1.45612180233001708984e+00) (0, 9.31206494569778442383e-02) (1, 5.11184155941009521484e-01) (0, -8.82812067866325378418e-02) (1, -2.78824162483215332031e+00) (0, 1.13766789436340332031e-02) (1, -1.75266838073730468750e+00) (0, 6.12295103073120117188e+00) (1, 9.40084457397460937500e-01) (0, 6.12660217285156250000e+00) (1, 1.06085288524627685547e+00) (0, 6.11856842041015625000e+00) (1, 9.10066604614257812500e-01) (0, -7.15046152472496032715e-02) (1, -2.78495573997497558594e+00) (0, 6.14408159255981445312e+00) (1, 1.14894950389862060547e+00) (0, 5.90885579586029052734e-01) (1, 3.62453103065490722656e+00) (0, -1.27264589071273803711e-01) (1, -3.02469491958618164062e+00) (0, 7.69023131579160690308e-03) (1, 1.48704421520233154297e+00) (0, -5.72472698986530303955e-02) (1, -2.57880425453186035156e+00) (0, 6.15007638931274414062e-01) (1, 3.53507661819458007812e+00) (0, 8.64770412445068359375e+00) (1, 1.29929435253143310547e+00) (0, 6.23094201087951660156e-01) (1, 3.53649878501892089844e+00) (0, 7.22290575504302978516e-01) (1, 3.36844635009765625000e+00) (0, -9.16973035782575607300e-03) (1, 6.45481944084167480469e-01) (0, 8.16242158412933349609e-01) (1, 3.62941575050354003906e+00) (0, 8.62825107574462890625e+00) (1, 1.18628656864166259766e+00) (0, 6.13965606689453125000e+00) (1, 1.12036967277526855469e+00) (0, -9.99236330389976501465e-02) (1, -2.85298848152160644531e+00) (0, -7.27257132530212402344e-02) (1, -2.65853619575500488281e+00) (0, 9.09626841545104980469e-01) (1, 4.51065397262573242188e+00) (0, -1.41667025163769721985e-02) (1, 1.46878325939178466797e+00) (0, 7.86024034023284912109e-02) (1, -1.55185699462890625000e+00) (0, 9.26275998353958129883e-02) (1, 8.19527626037597656250e-01) (0, -1.33710699155926704407e-02) (1, 1.47610318660736083984e+00) (0, 2.83053541183471679688e+00) (1, 1.24447774887084960938e+00) (0, -6.16848729550838470459e-02) (1, -2.71073102951049804688e+00) (0, 7.45848476886749267578e-01) (1, 3.38313579559326171875e+00) (0, -8.01758617162704467773e-02) (1, 2.60870552062988281250e+00) (0, -8.07444378733634948730e-02) (1, 2.84233784675598144531e+00) (0, 9.25318710505962371826e-03) (1, -1.78158438205718994141e+00) (0, -3.13152223825454711914e-02) (1, 1.82965683937072753906e+00) (0, 8.63494586944580078125e+00) (1, 1.22909045219421386719e+00) (0, -2.53511709161102771759e-04) (1, 6.13248229026794433594e-01) (0, -3.31615582108497619629e-02) (1, -2.72743225097656250000e+00) (0, 8.66753673553466796875e+00) (1, 1.50283181667327880859e+00) (0, 7.39514470100402832031e-01) (1, 3.22209191322326660156e+00) (0, -1.60036302986554801464e-04) (1, 1.77709817886352539062e+00) (0, 7.57971371058374643326e-04) (1, 4.59108173847198486328e-01) (0, 8.98980677127838134766e-01) (1, 4.58606195449829101562e+00) (0, 8.65511798858642578125e+00) (1, 1.24831640720367431641e+00) (0, 9.06666576862335205078e-01) (1, 4.52265977859497070312e+00) (0, 9.41383652389049530029e-03) (1, -1.54498493671417236328e+00) (0, 7.40805864334106445312e-02) (1, -1.53741681575775146484e+00) (0, 8.65806198120117187500e+00) (1, 1.34429955482482910156e+00) (0, 6.14432191848754882812e+00) (1, 1.14925897121429443359e+00) (0, -7.19108358025550842285e-02) (1, -2.63112401962280273438e+00) (0, 